#ifdef SUPPORT_MS_EXTENSIONS
#pragma bss_seg(".rt_anc.data.bss")
#pragma data_seg(".rt_anc.data")
#pragma const_seg(".rt_anc.text.const")
#pragma code_seg(".rt_anc.text")
#endif

#include "app_config.h"
#if ((defined TCFG_AUDIO_ANC_ACOUSTIC_DETECTOR_EN) && TCFG_AUDIO_ANC_ACOUSTIC_DETECTOR_EN && \
	 TCFG_AUDIO_ANC_ENABLE)
#include "audio_anc.h"
#include "rt_anc.h"

const u8 rt_anc_tool_data = 1;
const u8 rt_anc_dma_ch_num = 4;
const u8 rt_cmp_en = 0;
const u8 rt_anc_dac_en = 1;
const u8 RTANC_ALG_DEBUG = 0;
//const int target_cmp_num = 11;
//const float GAIN_LIMIT_ALL = 20;
//const int ICSD_IIR_NUM_FLEX = 7;
//const int ICSD_IIR_NUM_FIX = 3;
//const int ICSD_IIR_COEF = ICSD_IIR_NUM_FLEX * 3 + 1;
//
//const float biquad_init_tmp_h[] = { // 217
//    -5.82, 13505, 1.2,
//    -9.01,  7949,  2.0,
//    -8.301, 4771, 1.0,
//    3.818,   42, 1.0,
//    11.59,  81, 0.8,
//    7.405,  188,  0.7,
//    0,    400, 1.0,
//    7.792,  573, 0.6,
//    15.534, 1664, 0.8,
//    -4, 2800, 3.0,
//    -0.1778,
//};
//
//const float biquad_init_tmp_m[] = { // 217
//    -4.67, 13076, 1.2,
//    3.874,  6506,  2.0,
//    -0.759, 4165, 1.0,
//    3.818,   42, 1.0,
//    11.59,  81, 0.8,
//    7.405,  188,  0.7,
//    0,    400, 1.0,
//    7.792,  573, 0.6,
//    15.534, 1664, 0.8,
//    -14, 2800, 3.0,
//    -0.707946,
//};
//
//const float biquad_init_tmp_l[] = { // 217
//    -5.82, 13505, 1.2,
//    -9.01,  7949,  2.0,
//    -8.301, 4771, 1.0,
//    3.818,   42, 1.0,
//    11.59,  81, 0.8,
//    7.405,  188,  0.7,
//    0,    400, 1.0,
//    7.792,  573, 0.6,
//    15.534, 1664, 0.8,
//    -4, 2800, 3.0,
//    -0.1778,
//};
//
//const u8 cmp_iir_type[] = {
//    ANC_IIR_BAND_PASS,
//    ANC_IIR_BAND_PASS,
//    ANC_IIR_BAND_PASS,
//    ANC_IIR_BAND_PASS,
//    ANC_IIR_BAND_PASS,
//    ANC_IIR_BAND_PASS,
//    ANC_IIR_BAND_PASS,
//    ANC_IIR_BAND_PASS,
//};
//const u8 ff_iir_type[] = {
//    ANC_IIR_BAND_PASS,
//    ANC_IIR_BAND_PASS,
//    ANC_IIR_HIGH_SHELF,
//    ANC_IIR_BAND_PASS,
//    ANC_IIR_BAND_PASS,
//    ANC_IIR_BAND_PASS,
//    ANC_IIR_BAND_PASS,
//    ANC_IIR_BAND_PASS,
//    ANC_IIR_BAND_PASS,
//    ANC_IIR_BAND_PASS,
//};
//u8 biquad_type[] = { 2, 2, 3, 2, 2, 2, 2, 2, 2, 2 };
//const float total_gain_adj_begin = 200;
//const float total_gain_adj_end = 280;
//
//const float mse_tar_m[] = {
//    0.000, -8.00, -8.00, -16.00, -16.0, -16.0, -18.0, -18.0, -18.0, -18.0, -18.0, -18.0, -18.0, -18.0, -18.0,
//    -16.0, -16.0, -15.0, -14.0, -14.0, -12.0, -12.0, -10.0, -9.00, -9.00, -9.00, -8.00, -8.00, -8.00, -7.00,
//    -7.00, -7.00, -6.00, -6.00, -6.00, -5.00, -5.00, -4.00, -4.00, -4.00, -3.00, -3.00, -3.00, -3.00, -2.00,
//    -2.00, -2.00, -1.00, -1.00, -1.00, -1.00, 0.000, 0.000, 0.000, 0.000, 0.000, 0.000, 0.000, 0.000, 0.000,
//};
//
//const float weight_m[] = { //354
//    0.000, 50.000, 60.00, 60.00, 60.00, 60.00, 60.00, 60.00, 60.00, 60.00, 60.00, 60.00, 60.00, 60.00,  60.00,
//    30.00, 30.00, 30.00, 10.00, 10.00, 10.00, 5.00,  5.00,  5.00,  5.00,  5.000, 5.000, 5.000, 5.000,  5.00,
//    5.000, 5.000, 5.000, 5.000, 5.00,  5.00,  5.00,  5.00,  5.000, 5.000, 5.000, 5.000, 5.000, 5.000, 5.000,
//    2.000, 2.000, 2.000, 2.000, 0.000, 0.000, 0.000, 0.000, 0.000, 0.000, 0.000, 0.000, 0.000, 0.000, 0.000,
//};
//const float weight_h[] = { //279
//    0.000, 5.000, 10.00, 20.00, 20.00, 50.00, 50.00, 50.00, 50.00, 50.00, 50.00, 50.00, 50.00, 50.00,  50.00,
//    50.00, 50.00, 30.00, 30.00, 30.00, 30.00, 20.00, 20.00, 20.00, 10.00, 10.00, 10.00, 5.000, 5.000,  5.00,
//    5.000, 5.000, 5.000, 5.000, 5.00,  5.00,  5.00,  5.00,  5.000, 5.000, 5.000, 5.000, 5.000, 5.000, 5.000,
//    5.000, 5.000, 5.000, 5.000, 5.000, 5.000, 5.000, 5.000, 5.000, 5.000, 5.000, 5.000, 5.000, 5.000, 5.000,
//};
//
//const float mse_tar_h[] = {
//    0, -30, -30, -30, -30, -30, -30, -30, -30, -30, -30, -30, -30, -30, -30,
//    -30, -30, -30, -30, -30, -30, -30, -30, -30, -30, -30, -10, -10, -10, -10,
//    -10, -10, -10, -10, -10, -10, -10, -10, -10, -10, -10, -10, -10, -10, -10,
//    -10, -10, -10, -10, -10, -10, -10, -10, -10, -10, -10, -10, -10, -10, -10,
//};
//
//const float weight_l[] = { //429
//    0.000, 5.000, 10.00, 20.00, 20.00, 50.00, 50.00, 50.00, 50.00, 50.00, 50.00, 50.00, 50.00, 50.00,  50.00,
//    50.00, 50.00, 30.00, 30.00, 30.00, 30.00, 20.00, 20.00, 20.00, 10.00, 10.00, 10.00, 5.000, 5.000,  5.00,
//    5.000, 5.000, 5.000, 5.000, 5.00,  5.00,  5.00,  5.00,  5.000, 5.000, 5.000, 5.000, 5.000, 5.000, 5.000,
//    5.000, 5.000, 5.000, 5.000, 5.000, 5.000, 5.000, 5.000, 5.000, 5.000, 5.000, 5.000, 5.000, 5.000, 5.000,
//};
//const float mse_tar_l[] = {
//    0, -30, -30, -30, -30, -30, -30, -30, -30, -30, -30, -30, -30, -30, -30,
//    -30, -30, -30, -30, -30, -30, -30, -30, -30, -30, -30, -10, -10, -10, -10,
//    -10, -10, -10, -10, -10, -10, -10, -10, -10, -10, -10, -10, -10, -10, -10,
//    -10, -10, -10, -10, -10, -10, -10, -10, -10, -10, -10, -10, -10, -10, -10,
//};
//const float Vrange_tmp_l[] = {   // 62
//    -10, 20, 20,   50,   0.8, 1.2,
//    -10, 20, 50,   150,  0.8, 1.2,
//    -10, 20, 150,  300,  0.6, 1.1,
//    -10, 20, 300,  500,  0.8, 1.2,
//    -10, 20, 500,  1000, 0.6, 1.1,
//    -10, 25, 1000, 2000, 0.6, 1.1,
//    -10, 10, 2600, 3000, 2.0, 3.0,
//    -1.2, -0.8,
//    0, 0, 0, 0, 0, 0,
//    0, 0, 0, 0, 0, 0,
//    0, 0, 0, 0, 0, 0,
//};
//const float Vrange_tmp_m[] = {   // 62
//    4, 20, 20,   50,   0.3, 0.68,
//    4, 20, 50,   100,  0.3, 0.68,
//    -10, 20, 100,  300,  0.3, 0.68,
//    -10, 20, 300,  500,  0.3, 0.68,
//    -10, 20, 500,  1000, 0.6, 1.1,
//    -10, 25, 1000, 1700, 0.6, 1.1,
//    -14, -14, 2800, 2800, 3.0, 3.0,
//    -1.2, -0.8,
//    0, 0, 0, 0, 0, 0,
//    0, 0, 0, 0, 0, 0,
//    0, 0, 0, 0, 0, 0,
//};
//const float Vrange_tmp_h[] = {   // 62
//    -10, 20, 20,   50,   0.8, 1.2,
//    -10, 20, 50,   100,  0.8, 1.2,
//    -10, 20, 100,  300,  0.6, 1.1,
//    -10, 20, 300,  500,  0.8, 1.2,
//    -10, 20, 500,  1000, 0.6, 1.1,
//    -10, 25, 1000, 2000, 0.6, 1.1,
//    -10, 10, 2600, 3000, 2.0, 3.0,
//    -1.2, -0.8,
//    0, 0, 0, 0, 0, 0,
//    0, 0, 0, 0, 0, 0,
//    0, 0, 0, 0, 0, 0,
//};
//const float target_sv[] = {
//    //target_sv 7*11
//    26, 24, 22, 20, 18, 16, 15,
//    23, 22, 21, 19, 15, 13, 11,
//    20, 18, 16, 14, 12, 10, 6,
//    17, 15, 13, 11,  9,  8, 6,
//    10, 9, 7, 7, 5, 5, 3,
//    11, 7, 7, 5, 5, 3, 3,
//    10, 7, 5, 5, 3, 3, 1,
//    6, 5, 5, 3, 3, 1, 1,
//    4, 3, 3, 1, 1, 1, 1,
//    1, 0, 0, -1, -1, -1, -1,
//    -2, -2, -2, -2, -3, -3, -3,
//};
//const float tg_cmp[] = { 1.000000, 0.000000, 0.999848, -0.017452, 0.999391, -0.034899, 0.998630, -0.052336, 0.997564, -0.069756, 0.996195, -0.087156, 0.994522, -0.104528, 0.992546, -0.121869, 0.990268, -0.139173, 0.987688, -0.156434, 0.984808, -0.173648, 0.981627, -0.190809, 0.978148, -0.207912, 0.974370, -0.224951, 0.970296, -0.241922, 0.965926, -0.258819, 0.961262, -0.275637, 0.956305, -0.292372, 0.951057, -0.309017, 0.945519, -0.325568, 0.939693, -0.342020, 0.933580, -0.358368, 0.927184, -0.374607, 0.920505, -0.390731, 0.913545, -0.406737, 0.906308, -0.422618, 0.898794, -0.438371, 0.891007, -0.453990, 0.882948, -0.469472, 0.874620, -0.484810, 0.866025, -0.500000, 0.857167, -0.515038, 0.848048, -0.529919, 0.838671, -0.544639, 0.829038, -0.559193, 0.819152, -0.573576, 0.809017, -0.587785, 0.798635, -0.601815, 0.788011, -0.615662, 0.777146, -0.629320, 0.766044, -0.642788, 0.754710, -0.656059, 0.743145, -0.669131, 0.731354, -0.681998, 0.719340, -0.694658, 0.707107, -0.707107,
//                         1.000000, 0.000000, 0.999848, -0.017452, 0.999391, -0.034899, 0.998630, -0.052336, 0.997564, -0.069756, 0.996195, -0.087156, 0.994522, -0.104528, 0.992546, -0.121869, 0.990268, -0.139173, 0.987688, -0.156434, 0.984808, -0.173648, 0.981627, -0.190809, 0.978148, -0.207912, 0.974370, -0.224951, 0.970296, -0.241922, 0.965926, -0.258819, 0.961262, -0.275637, 0.956305, -0.292372, 0.951057, -0.309017, 0.945519, -0.325568, 0.939693, -0.342020, 0.933580, -0.358368, 0.927184, -0.374607, 0.920505, -0.390731, 0.913545, -0.406737, 0.906308, -0.422618, 0.898794, -0.438371, 0.891007, -0.453990, 0.882948, -0.469472, 0.874620, -0.484810, 0.866025, -0.500000, 0.857167, -0.515038, 0.848048, -0.529919, 0.838671, -0.544639, 0.829038, -0.559193, 0.819152, -0.573576, 0.809017, -0.587785, 0.798635, -0.601815, 0.788011, -0.615662, 0.777146, -0.629320, 0.766044, -0.642788, 0.754710, -0.656059, 0.743145, -0.669131, 0.731354, -0.681998, 0.719340, -0.694658, 0.707107, -0.707107,
//                         1.000000, 0.000000, 0.999848, -0.017452, 0.999391, -0.034899, 0.998630, -0.052336, 0.997564, -0.069756, 0.996195, -0.087156, 0.994522, -0.104528, 0.992546, -0.121869, 0.990268, -0.139173, 0.987688, -0.156434, 0.984808, -0.173648, 0.981627, -0.190809, 0.978148, -0.207912, 0.974370, -0.224951, 0.970296, -0.241922, 0.965926, -0.258819, 0.961262, -0.275637, 0.956305, -0.292372, 0.951057, -0.309017, 0.945519, -0.325568, 0.939693, -0.342020, 0.933580, -0.358368, 0.927184, -0.374607, 0.920505, -0.390731, 0.913545, -0.406737, 0.906308, -0.422618, 0.898794, -0.438371, 0.891007, -0.453990, 0.882948, -0.469472, 0.874620, -0.484810, 0.866025, -0.500000, 0.857167, -0.515038, 0.848048, -0.529919, 0.838671, -0.544639, 0.829038, -0.559193, 0.819152, -0.573576, 0.809017, -0.587785, 0.798635, -0.601815, 0.788011, -0.615662, 0.777146, -0.629320, 0.766044, -0.642788, 0.754710, -0.656059, 0.743145, -0.669131, 0.731354, -0.681998, 0.719340, -0.694658, 0.707107, -0.707107,
//                         1.000000, 0.000000, 0.999848, -0.017452, 0.999391, -0.034899, 0.998630, -0.052336, 0.997564, -0.069756, 0.996195, -0.087156, 0.994522, -0.104528, 0.992546, -0.121869, 0.990268, -0.139173, 0.987688, -0.156434, 0.984808, -0.173648, 0.981627, -0.190809, 0.978148, -0.207912, 0.974370, -0.224951, 0.970296, -0.241922, 0.965926, -0.258819, 0.961262, -0.275637, 0.956305, -0.292372, 0.951057, -0.309017, 0.945519, -0.325568, 0.939693, -0.342020, 0.933580, -0.358368, 0.927184, -0.374607, 0.920505, -0.390731, 0.913545, -0.406737, 0.906308, -0.422618, 0.898794, -0.438371, 0.891007, -0.453990, 0.882948, -0.469472, 0.874620, -0.484810, 0.866025, -0.500000, 0.857167, -0.515038, 0.848048, -0.529919, 0.838671, -0.544639, 0.829038, -0.559193, 0.819152, -0.573576, 0.809017, -0.587785, 0.798635, -0.601815, 0.788011, -0.615662, 0.777146, -0.629320, 0.766044, -0.642788, 0.754710, -0.656059, 0.743145, -0.669131, 0.731354, -0.681998, 0.719340, -0.694658, 0.707107, -0.707107,
//                         1.000000, 0.000000, 0.999848, -0.017452, 0.999391, -0.034899, 0.998630, -0.052336, 0.997564, -0.069756, 0.996195, -0.087156, 0.994522, -0.104528, 0.992546, -0.121869, 0.990268, -0.139173, 0.987688, -0.156434, 0.984808, -0.173648, 0.981627, -0.190809, 0.978148, -0.207912, 0.974370, -0.224951, 0.970296, -0.241922, 0.965926, -0.258819, 0.961262, -0.275637, 0.956305, -0.292372, 0.951057, -0.309017, 0.945519, -0.325568, 0.939693, -0.342020, 0.933580, -0.358368, 0.927184, -0.374607, 0.920505, -0.390731, 0.913545, -0.406737, 0.906308, -0.422618, 0.898794, -0.438371, 0.891007, -0.453990, 0.882948, -0.469472, 0.874620, -0.484810, 0.866025, -0.500000, 0.857167, -0.515038, 0.848048, -0.529919, 0.838671, -0.544639, 0.829038, -0.559193, 0.819152, -0.573576, 0.809017, -0.587785, 0.798635, -0.601815, 0.788011, -0.615662, 0.777146, -0.629320, 0.766044, -0.642788, 0.754710, -0.656059, 0.743145, -0.669131, 0.731354, -0.681998, 0.719340, -0.694658, 0.707107, -0.707107,
//                         1.000000, 0.000000, 0.999848, -0.017452, 0.999391, -0.034899, 0.998630, -0.052336, 0.997564, -0.069756, 0.996195, -0.087156, 0.994522, -0.104528, 0.992546, -0.121869, 0.990268, -0.139173, 0.987688, -0.156434, 0.984808, -0.173648, 0.981627, -0.190809, 0.978148, -0.207912, 0.974370, -0.224951, 0.970296, -0.241922, 0.965926, -0.258819, 0.961262, -0.275637, 0.956305, -0.292372, 0.951057, -0.309017, 0.945519, -0.325568, 0.939693, -0.342020, 0.933580, -0.358368, 0.927184, -0.374607, 0.920505, -0.390731, 0.913545, -0.406737, 0.906308, -0.422618, 0.898794, -0.438371, 0.891007, -0.453990, 0.882948, -0.469472, 0.874620, -0.484810, 0.866025, -0.500000, 0.857167, -0.515038, 0.848048, -0.529919, 0.838671, -0.544639, 0.829038, -0.559193, 0.819152, -0.573576, 0.809017, -0.587785, 0.798635, -0.601815, 0.788011, -0.615662, 0.777146, -0.629320, 0.766044, -0.642788, 0.754710, -0.656059, 0.743145, -0.669131, 0.731354, -0.681998, 0.719340, -0.694658, 0.707107, -0.707107,
//                         1.000000, 0.000000, 0.999848, -0.017452, 0.999391, -0.034899, 0.998630, -0.052336, 0.997564, -0.069756, 0.996195, -0.087156, 0.994522, -0.104528, 0.992546, -0.121869, 0.990268, -0.139173, 0.987688, -0.156434, 0.984808, -0.173648, 0.981627, -0.190809, 0.978148, -0.207912, 0.974370, -0.224951, 0.970296, -0.241922, 0.965926, -0.258819, 0.961262, -0.275637, 0.956305, -0.292372, 0.951057, -0.309017, 0.945519, -0.325568, 0.939693, -0.342020, 0.933580, -0.358368, 0.927184, -0.374607, 0.920505, -0.390731, 0.913545, -0.406737, 0.906308, -0.422618, 0.898794, -0.438371, 0.891007, -0.453990, 0.882948, -0.469472, 0.874620, -0.484810, 0.866025, -0.500000, 0.857167, -0.515038, 0.848048, -0.529919, 0.838671, -0.544639, 0.829038, -0.559193, 0.819152, -0.573576, 0.809017, -0.587785, 0.798635, -0.601815, 0.788011, -0.615662, 0.777146, -0.629320, 0.766044, -0.642788, 0.754710, -0.656059, 0.743145, -0.669131, 0.731354, -0.681998, 0.719340, -0.694658, 0.707107, -0.707107,
//                         1.000000, 0.000000, 0.999848, -0.017452, 0.999391, -0.034899, 0.998630, -0.052336, 0.997564, -0.069756, 0.996195, -0.087156, 0.994522, -0.104528, 0.992546, -0.121869, 0.990268, -0.139173, 0.987688, -0.156434, 0.984808, -0.173648, 0.981627, -0.190809, 0.978148, -0.207912, 0.974370, -0.224951, 0.970296, -0.241922, 0.965926, -0.258819, 0.961262, -0.275637, 0.956305, -0.292372, 0.951057, -0.309017, 0.945519, -0.325568, 0.939693, -0.342020, 0.933580, -0.358368, 0.927184, -0.374607, 0.920505, -0.390731, 0.913545, -0.406737, 0.906308, -0.422618, 0.898794, -0.438371, 0.891007, -0.453990, 0.882948, -0.469472, 0.874620, -0.484810, 0.866025, -0.500000, 0.857167, -0.515038, 0.848048, -0.529919, 0.838671, -0.544639, 0.829038, -0.559193, 0.819152, -0.573576, 0.809017, -0.587785, 0.798635, -0.601815, 0.788011, -0.615662, 0.777146, -0.629320, 0.766044, -0.642788, 0.754710, -0.656059, 0.743145, -0.669131, 0.731354, -0.681998, 0.719340, -0.694658, 0.707107, -0.707107,
//                         1.000000, 0.000000, 0.999848, -0.017452, 0.999391, -0.034899, 0.998630, -0.052336, 0.997564, -0.069756, 0.996195, -0.087156, 0.994522, -0.104528, 0.992546, -0.121869, 0.990268, -0.139173, 0.987688, -0.156434, 0.984808, -0.173648, 0.981627, -0.190809, 0.978148, -0.207912, 0.974370, -0.224951, 0.970296, -0.241922, 0.965926, -0.258819, 0.961262, -0.275637, 0.956305, -0.292372, 0.951057, -0.309017, 0.945519, -0.325568, 0.939693, -0.342020, 0.933580, -0.358368, 0.927184, -0.374607, 0.920505, -0.390731, 0.913545, -0.406737, 0.906308, -0.422618, 0.898794, -0.438371, 0.891007, -0.453990, 0.882948, -0.469472, 0.874620, -0.484810, 0.866025, -0.500000, 0.857167, -0.515038, 0.848048, -0.529919, 0.838671, -0.544639, 0.829038, -0.559193, 0.819152, -0.573576, 0.809017, -0.587785, 0.798635, -0.601815, 0.788011, -0.615662, 0.777146, -0.629320, 0.766044, -0.642788, 0.754710, -0.656059, 0.743145, -0.669131, 0.731354, -0.681998, 0.719340, -0.694658, 0.707107, -0.707107,
//                         1.000000, 0.000000, 0.999848, -0.017452, 0.999391, -0.034899, 0.998630, -0.052336, 0.997564, -0.069756, 0.996195, -0.087156, 0.994522, -0.104528, 0.992546, -0.121869, 0.990268, -0.139173, 0.987688, -0.156434, 0.984808, -0.173648, 0.981627, -0.190809, 0.978148, -0.207912, 0.974370, -0.224951, 0.970296, -0.241922, 0.965926, -0.258819, 0.961262, -0.275637, 0.956305, -0.292372, 0.951057, -0.309017, 0.945519, -0.325568, 0.939693, -0.342020, 0.933580, -0.358368, 0.927184, -0.374607, 0.920505, -0.390731, 0.913545, -0.406737, 0.906308, -0.422618, 0.898794, -0.438371, 0.891007, -0.453990, 0.882948, -0.469472, 0.874620, -0.484810, 0.866025, -0.500000, 0.857167, -0.515038, 0.848048, -0.529919, 0.838671, -0.544639, 0.829038, -0.559193, 0.819152, -0.573576, 0.809017, -0.587785, 0.798635, -0.601815, 0.788011, -0.615662, 0.777146, -0.629320, 0.766044, -0.642788, 0.754710, -0.656059, 0.743145, -0.669131, 0.731354, -0.681998, 0.719340, -0.694658, 0.707107, -0.707107,
//                         1.000000, 0.000000, 0.999848, -0.017452, 0.999391, -0.034899, 0.998630, -0.052336, 0.997564, -0.069756, 0.996195, -0.087156, 0.994522, -0.104528, 0.992546, -0.121869, 0.990268, -0.139173, 0.987688, -0.156434, 0.984808, -0.173648, 0.981627, -0.190809, 0.978148, -0.207912, 0.974370, -0.224951, 0.970296, -0.241922, 0.965926, -0.258819, 0.961262, -0.275637, 0.956305, -0.292372, 0.951057, -0.309017, 0.945519, -0.325568, 0.939693, -0.342020, 0.933580, -0.358368, 0.927184, -0.374607, 0.920505, -0.390731, 0.913545, -0.406737, 0.906308, -0.422618, 0.898794, -0.438371, 0.891007, -0.453990, 0.882948, -0.469472, 0.874620, -0.484810, 0.866025, -0.500000, 0.857167, -0.515038, 0.848048, -0.529919, 0.838671, -0.544639, 0.829038, -0.559193, 0.819152, -0.573576, 0.809017, -0.587785, 0.798635, -0.601815, 0.788011, -0.615662, 0.777146, -0.629320, 0.766044, -0.642788, 0.754710, -0.656059, 0.743145, -0.669131, 0.731354, -0.681998, 0.719340, -0.694658, 0.707107, -0.707107,
//                       };
//
//
//const float pz_table[] = {
//    0.000000, 0.000000, 0.673303, -0.154474, 0.698598, -0.193151, 0.682758, -0.221865, 0.603668, -0.301324, 0.564462, -0.328847, 0.506511, -0.373365, 0.445769, -0.396070, 0.358018, -0.392219, 0.325612, -0.373944, 0.305562, -0.363905, 0.269074, -0.357319, 0.250219, -0.346310, 0.215224, -0.342645, 0.198574, -0.330012, 0.182814, -0.325360, 0.165440, -0.327513, 0.148651, -0.310784, 0.137655, -0.302163, 0.127508, -0.291254, 0.128812, -0.281473, 0.130242, -0.287575, 0.123499, -0.285949, 0.111984, -0.295662, 0.097605, -0.286640, 0.082160, -0.294817, 0.065439, -0.294727, 0.055533, -0.291448, 0.039815, -0.287809, 0.012592, -0.276354, 0.009734, -0.251234, -0.001035, -0.230392, 0.001896, -0.216065, 0.011715, -0.199949, 0.021668, -0.199178, 0.025130, -0.191444, 0.034170, -0.186639, 0.044304, -0.186780, 0.061120, -0.190269, 0.080832, -0.190397, 0.085554, -0.211639, 0.095841, -0.246240, 0.090432, -0.264023, 0.092739, -0.295835, 0.067386, -0.327796, 0.023420, -0.346397, -0.006397, -0.370253, -0.053935, -0.369251, -0.107956, -0.378548, -0.167890, -0.361708, -0.203090, -0.313638, -0.235063, -0.254721, -0.235192, -0.193510, -0.225706, -0.201072, -0.201822, -0.127915, -0.227825, -0.109365, -0.204506, -0.068434, -0.185426, -0.052115, -0.168920, -0.028434, -0.114010, 0.001583,
//    0.000000, 0.000000, 0.765597, -0.156173, 0.730199, -0.198096, 0.706969, -0.218293, 0.636503, -0.307415, 0.573032, -0.331802, 0.530102, -0.359210, 0.488731, -0.383376, 0.425951, -0.390453, 0.376700, -0.393565, 0.347345, -0.388435, 0.305363, -0.383502, 0.274637, -0.366242, 0.267243, -0.366435, 0.245846, -0.362882, 0.236164, -0.359872, 0.205464, -0.373979, 0.184039, -0.377206, 0.177245, -0.372638, 0.154914, -0.369869, 0.110204, -0.366817, 0.100015, -0.349034, 0.084737, -0.331614, 0.076036, -0.329429, 0.051308, -0.305894, 0.035165, -0.298368, 0.041068, -0.281849, 0.053106, -0.271146, 0.044800, -0.288845, 0.022281, -0.276632, 0.014703, -0.256119, 0.019368, -0.235063, 0.029088, -0.228886, 0.033825, -0.232831, 0.045879, -0.235455, 0.045157, -0.231441, 0.044732, -0.240540, 0.050717, -0.237109, 0.052788, -0.247112, 0.057099, -0.257402, 0.044449, -0.264591, 0.023590, -0.276010, 0.027909, -0.264049, 0.018364, -0.295469, 0.005696, -0.301223, -0.013308, -0.309149, -0.033488, -0.292198, -0.022948, -0.296827, -0.069331, -0.278011, -0.067917, -0.293276, -0.076988, -0.299431, -0.068140, -0.303911, -0.104396, -0.311151, -0.132370, -0.308487, -0.157774, -0.297445, -0.163846, -0.278452, -0.161306, -0.265645, -0.172646, -0.256250, -0.186098, -0.257047, -0.187622, -0.241263,
//    0.000000, 0.000000, 0.749920, -0.123342, 0.719826, -0.185134, 0.678825, -0.239039, 0.612356, -0.296539, 0.562529, -0.327992, 0.504834, -0.373016, 0.447482, -0.392992, 0.371334, -0.388553, 0.345144, -0.375693, 0.327465, -0.363042, 0.286012, -0.357140, 0.251931, -0.345442, 0.227221, -0.337998, 0.217384, -0.323009, 0.210528, -0.319878, 0.188667, -0.315965, 0.175343, -0.311043, 0.164623, -0.300412, 0.154371, -0.295023, 0.154015, -0.292060, 0.153716, -0.294707, 0.147816, -0.294032, 0.129273, -0.305338, 0.116559, -0.300117, 0.109103, -0.298784, 0.101212, -0.299558, 0.094631, -0.299701, 0.076657, -0.296829, 0.055568, -0.294001, 0.044503, -0.289340, 0.029089, -0.286718, 0.025845, -0.271053, 0.019473, -0.257929, 0.019436, -0.241751, 0.017352, -0.231546, 0.031209, -0.213434, 0.045171, -0.208880, 0.054436, -0.213770, 0.076985, -0.221217, 0.092657, -0.245386, 0.107343, -0.268848, 0.101798, -0.306982, 0.098859, -0.333407, 0.070890, -0.375192, 0.033772, -0.412591, 0.003232, -0.432588, -0.105995, -0.434003, -0.149805, -0.420214, -0.185979, -0.392130, -0.241143, -0.354128, -0.246820, -0.325220, -0.286314, -0.246786, -0.295492, -0.208710, -0.280296, -0.151496, -0.247958, -0.119969, -0.220407, -0.097509, -0.190315, -0.065242, -0.163244, -0.034131, -0.113519, -0.023511,
//    0.000000, 0.000000, 0.715311, -0.225706, 0.704633, -0.188574, 0.684886, -0.227478, 0.600415, -0.321433, 0.560573, -0.330485, 0.505800, -0.364574, 0.437366, -0.394113, 0.377933, -0.391022, 0.329480, -0.373895, 0.295829, -0.369976, 0.263582, -0.348900, 0.225232, -0.343472, 0.206855, -0.342250, 0.199947, -0.330977, 0.188294, -0.324566, 0.165816, -0.320135, 0.149595, -0.309901, 0.135252, -0.298575, 0.126036, -0.291059, 0.131948, -0.280873, 0.132496, -0.282942, 0.122494, -0.285987, 0.117194, -0.289744, 0.091478, -0.283165, 0.092288, -0.299010, 0.071107, -0.290920, 0.054758, -0.296655, 0.037453, -0.281623, 0.016289, -0.268628, 0.002843, -0.257606, -0.004069, -0.231002, 0.000343, -0.216327, 0.005431, -0.200237, 0.020082, -0.193607, 0.030910, -0.185061, 0.037340, -0.185097, 0.050523, -0.188208, 0.060079, -0.189575, 0.069883, -0.188173, 0.086004, -0.212728, 0.090910, -0.231369, 0.094822, -0.269087, 0.089000, -0.303759, 0.065486, -0.334139, 0.041917, -0.353007, -0.012475, -0.369385, -0.082622, -0.405610, -0.133977, -0.389940, -0.179011, -0.348948, -0.197604, -0.299653, -0.212484, -0.270329, -0.232980, -0.240598, -0.237608, -0.177181, -0.235754, -0.123596, -0.212285, -0.100570, -0.195630, -0.081709, -0.166654, -0.055921, -0.154476, -0.019691, -0.123753, -0.007787,
//    0.000000, 0.000000, 0.775145, -0.193765, 0.693471, -0.234115, 0.626110, -0.274104, 0.557569, -0.309451, 0.489361, -0.339604, 0.429670, -0.348041, 0.387903, -0.345038, 0.345832, -0.327143, 0.294453, -0.314282, 0.275116, -0.293607, 0.251334, -0.298999, 0.233717, -0.298256, 0.219795, -0.294863, 0.206148, -0.297411, 0.193491, -0.289288, 0.174778, -0.287291, 0.150605, -0.286174, 0.134199, -0.278781, 0.123059, -0.269144, 0.114766, -0.273936, 0.112780, -0.256109, 0.106425, -0.241179, 0.096496, -0.237622, 0.081461, -0.226744, 0.079038, -0.238136, 0.066229, -0.220227, 0.069023, -0.203192, 0.061765, -0.183653, 0.070883, -0.179138, 0.070474, -0.176554, 0.073638, -0.183407, 0.074172, -0.191663, 0.074412, -0.187559, 0.084232, -0.189690, 0.075162, -0.200669, 0.073131, -0.203013, 0.075857, -0.197068, 0.082084, -0.206166, 0.087885, -0.198163, 0.088956, -0.194300, 0.096137, -0.208588, 0.096237, -0.247967, 0.104416, -0.252591, 0.122507, -0.272999, 0.097420, -0.299223, 0.076112, -0.309464, 0.053401, -0.338053, 0.020379, -0.369451, -0.011037, -0.378477, -0.068654, -0.377102, -0.121027, -0.358810, -0.141894, -0.320044, -0.175229, -0.292329, -0.202546, -0.263655, -0.221477, -0.243278, -0.227452, -0.208388, -0.239836, -0.172438, -0.195894, -0.124144, -0.196140, -0.107075,
//    0.000000, 0.000000, 0.795226, -0.165659, 0.663034, -0.236332, 0.620432, -0.270212, 0.511872, -0.341114, 0.445842, -0.356285, 0.368379, -0.358337, 0.328610, -0.349525, 0.280795, -0.339347, 0.261744, -0.323339, 0.234984, -0.312506, 0.215177, -0.295047, 0.200662, -0.291299, 0.176212, -0.287203, 0.167369, -0.275120, 0.164990, -0.269686, 0.158042, -0.267507, 0.156331, -0.261324, 0.136585, -0.283735, 0.107241, -0.276244, 0.090564, -0.261105, 0.084655, -0.251082, 0.077986, -0.234986, 0.065340, -0.220553, 0.071523, -0.213662, 0.066334, -0.204989, 0.066224, -0.194443, 0.068980, -0.180064, 0.081861, -0.178877, 0.093902, -0.174724, 0.102847, -0.191145, 0.099728, -0.196569, 0.100492, -0.196224, 0.107704, -0.209226, 0.110219, -0.214149, 0.117197, -0.212557, 0.128003, -0.236840, 0.125360, -0.262618, 0.109883, -0.278124, 0.128533, -0.289436, 0.113290, -0.315933, 0.096319, -0.316271, 0.083264, -0.323192, 0.092692, -0.374756, 0.073270, -0.394535, 0.017294, -0.429276, 0.007498, -0.452702, -0.050527, -0.502337, -0.097289, -0.513355, -0.199705, -0.506889, -0.255979, -0.487640, -0.246945, -0.448550, -0.298219, -0.425673, -0.346229, -0.379800, -0.377984, -0.344070, -0.391325, -0.304887, -0.386853, -0.265048, -0.395324, -0.229465, -0.395946, -0.192650, -0.393289, -0.145226,
//    0.000000, 0.000000, 0.762379, -0.149877, 0.767440, -0.180906, 0.716204, -0.230918, 0.668857, -0.288845, 0.620432, -0.339699, 0.570928, -0.372950, 0.524673, -0.394075, 0.449745, -0.414038, 0.419230, -0.417528, 0.359051, -0.413271, 0.330595, -0.405432, 0.307783, -0.402100, 0.269916, -0.392161, 0.255448, -0.387249, 0.242273, -0.383507, 0.214844, -0.390795, 0.199898, -0.385099, 0.186139, -0.380533, 0.161432, -0.351091, 0.146592, -0.331570, 0.119450, -0.346555, 0.105494, -0.327780, 0.111130, -0.317597, 0.109104, -0.318520, 0.097872, -0.292124, 0.113708, -0.286331, 0.118476, -0.303457, 0.107454, -0.300802, 0.083745, -0.313830, 0.073971, -0.323557, 0.067951, -0.321233, 0.060382, -0.328274, 0.055593, -0.324118, 0.038133, -0.333201, 0.012587, -0.348359, -0.007724, -0.343642, -0.028400, -0.329387, -0.019049, -0.327318, -0.049451, -0.293081, -0.061623, -0.265679, -0.074106, -0.274528, -0.059371, -0.258100, -0.054085, -0.246114, -0.058034, -0.245303, -0.068506, -0.248558, -0.038804, -0.241720, -0.067334, -0.231697, -0.050423, -0.207399, -0.041834, -0.252250, -0.047552, -0.254172, -0.058733, -0.261423, -0.072504, -0.245482, -0.121079, -0.281552, -0.135680, -0.272273, -0.130136, -0.257797, -0.135726, -0.246214, -0.171527, -0.249361, -0.207424, -0.247769, -0.187116, -0.220597,
//    0.000000, 0.000000, 1.047489, -0.044470, 0.743031, -0.184937, 0.770170, -0.258018, 0.600629, -0.292520, 0.584697, -0.297323, 0.540846, -0.322543, 0.486866, -0.326244, 0.439807, -0.325524, 0.415411, -0.338886, 0.371182, -0.371138, 0.338818, -0.388634, 0.315510, -0.375753, 0.289609, -0.381977, 0.276820, -0.368326, 0.235673, -0.379806, 0.179909, -0.384265, 0.168789, -0.404053, 0.138199, -0.404793, 0.114055, -0.375426, 0.096505, -0.343020, 0.086286, -0.334356, 0.084142, -0.317916, 0.092981, -0.297276, 0.086280, -0.277886, 0.081747, -0.266809, 0.071935, -0.265807, 0.074015, -0.255573, 0.058557, -0.251866, 0.062436, -0.248710, 0.054436, -0.225975, 0.066860, -0.199420, 0.071889, -0.212918, 0.100784, -0.202474, 0.110665, -0.214635, 0.131612, -0.225155, 0.108317, -0.256552, 0.110152, -0.259822, 0.111812, -0.269737, 0.091898, -0.264095, 0.076051, -0.273665, 0.076413, -0.278712, 0.063453, -0.274283, 0.103636, -0.290370, 0.121375, -0.310123, 0.128118, -0.344555, 0.088312, -0.388744, 0.062692, -0.390262, 0.005354, -0.433374, -0.012185, -0.406208, -0.076898, -0.402764, -0.148208, -0.408976, -0.149686, -0.340980, -0.185879, -0.323878, -0.201051, -0.281641, -0.221387, -0.261593, -0.250605, -0.257073, -0.222743, -0.260906, -0.197071, -0.253983, -0.235376, -0.214165,
//    0.000000, 0.000000, 0.807202, -0.115142, 0.766481, -0.189961, 0.724316, -0.228307, 0.682777, -0.282605, 0.613870, -0.330710, 0.568721, -0.364982, 0.534029, -0.382649, 0.453561, -0.408154, 0.415343, -0.410494, 0.371974, -0.417723, 0.333454, -0.406372, 0.317813, -0.392515, 0.285701, -0.389470, 0.267574, -0.383732, 0.249025, -0.387069, 0.227495, -0.390348, 0.208673, -0.376442, 0.187183, -0.363408, 0.170979, -0.340273, 0.157360, -0.327059, 0.137313, -0.318812, 0.117949, -0.329657, 0.128663, -0.324469, 0.130536, -0.316868, 0.124367, -0.299220, 0.141966, -0.290296, 0.126291, -0.314135, 0.105072, -0.327021, 0.089143, -0.328857, 0.088437, -0.330157, 0.081456, -0.338713, 0.077161, -0.340264, 0.066363, -0.332273, 0.037183, -0.350629, 0.019507, -0.346407, 0.010598, -0.336598, -0.012093, -0.336929, -0.019395, -0.325083, -0.020863, -0.305411, -0.017725, -0.305709, -0.036165, -0.293331, -0.050773, -0.292598, -0.048250, -0.273513, -0.086940, -0.268513, -0.062483, -0.263509, -0.082700, -0.230605, -0.054442, -0.228600, -0.073866, -0.254850, -0.067857, -0.248141, -0.030831, -0.298584, -0.014999, -0.291780, -0.057133, -0.284772, -0.056016, -0.318160, -0.091984, -0.331933, -0.118469, -0.308212, -0.111711, -0.309909, -0.139227, -0.287427, -0.148330, -0.311090, -0.170621, -0.316984,
//    //0.000000, 0.000000, 0.663266, -0.087104, 0.636973, -0.207775, 0.600519, -0.264175, 0.531220, -0.298993, 0.466617, -0.319478, 0.373360, -0.336748, 0.333369, -0.328702, 0.304802, -0.306111, 0.283657, -0.296000, 0.270589, -0.277890, 0.253055, -0.271692, 0.246906, -0.272002, 0.240167, -0.279433, 0.223509, -0.267275, 0.192985, -0.264269, 0.168934, -0.255390, 0.165970, -0.235654, 0.174205, -0.220556, 0.178641, -0.227883, 0.179238, -0.246449, 0.162392, -0.258170, 0.147948, -0.257737, 0.129963, -0.251532, 0.124786, -0.238010, 0.125572, -0.224910, 0.122798, -0.231837, 0.140752, -0.218801, 0.138557, -0.228922, 0.144691, -0.232480, 0.143579, -0.241723, 0.150298, -0.243037, 0.150717, -0.256368, 0.152878, -0.273057, 0.157735, -0.293664, 0.144204, -0.315206, 0.134429, -0.320651, 0.125832, -0.347853, 0.116651, -0.354445, 0.092539, -0.370069, 0.059208, -0.396933, 0.051502, -0.409193, 0.012056, -0.394790, -0.009374, -0.391718, -0.047802, -0.387710, -0.112703, -0.386085, -0.138916, -0.382486, -0.150253, -0.407593, -0.139378, -0.355761, -0.164263, -0.372776, -0.185097, -0.326507, -0.194947, -0.351937, -0.233311, -0.317358, -0.250054, -0.278657, -0.280824, -0.269451, -0.284557, -0.244367, -0.297820, -0.225881, -0.286915, -0.184237, -0.242827, -0.152878, -0.286708, -0.142063,
//    0.000000, 0.000000, 0.458710, -0.160811, 0.646028, -0.220154, 0.614825, -0.266695, 0.516430, -0.307761, 0.459746, -0.323528, 0.402785, -0.323882, 0.369395, -0.317514, 0.330077, -0.301018, 0.299588, -0.324790, 0.287542, -0.345051, 0.257726, -0.350415, 0.205572, -0.326808, 0.184668, -0.323556, 0.157891, -0.316576, 0.135968, -0.316596, 0.115542, -0.296462, 0.100997, -0.282870, 0.096746, -0.270965, 0.087596, -0.264520, 0.080597, -0.245099, 0.067450, -0.241157, 0.074866, -0.240765, 0.065380, -0.239632, 0.046767, -0.227177, 0.034689, -0.227748, 0.023631, -0.206227, 0.030002, -0.185454, 0.021924, -0.187590, 0.027399, -0.174669, 0.033027, -0.166186, 0.034784, -0.157800, 0.048110, -0.147133, 0.051953, -0.153447, 0.062055, -0.164126, 0.064432, -0.165146, 0.078608, -0.170436, 0.080053, -0.180932, 0.072927, -0.186614, 0.078623, -0.213100, 0.057926, -0.217055, 0.056088, -0.223342, 0.059111, -0.243820, 0.056553, -0.245531, 0.053991, -0.237146, 0.038411, -0.265516, 0.012801, -0.293305, 0.000050, -0.279952, -0.005521, -0.264782, -0.039841, -0.284980, -0.069642, -0.309552, -0.098165, -0.291223, -0.087409, -0.261063, -0.120762, -0.237635, -0.099545, -0.208620, -0.126745, -0.182348, -0.130923, -0.172123, -0.154140, -0.150453, -0.184003, -0.135586, -0.166353, -0.152923,
//    //0.000000, 0.000000, 0.566098, -0.108556, 0.675139, -0.219419, 0.589343, -0.281554, 0.539845, -0.322817, 0.455575, -0.346466, 0.369740, -0.351870, 0.338198, -0.334139, 0.264996, -0.308153, 0.243045, -0.306936, 0.218883, -0.292753, 0.199900, -0.283906, 0.192588, -0.269753, 0.182062, -0.262576, 0.162718, -0.271057, 0.174219, -0.263019, 0.172781, -0.273439, 0.162589, -0.255167, 0.156288, -0.259579, 0.122299, -0.262226, 0.101420, -0.251139, 0.089422, -0.234639, 0.080003, -0.234951, 0.079259, -0.222842, 0.067346, -0.214330, 0.078650, -0.209655, 0.080411, -0.192965, 0.082492, -0.185905, 0.085900, -0.180926, 0.103584, -0.183404, 0.115562, -0.194864, 0.107498, -0.197011, 0.103296, -0.198744, 0.119471, -0.212194, 0.133986, -0.223623, 0.135915, -0.229613, 0.142189, -0.255742, 0.139651, -0.256337, 0.143638, -0.240284, 0.139569, -0.283236, 0.162184, -0.317541, 0.148517, -0.346795, 0.113249, -0.339722, 0.121775, -0.375705, 0.116588, -0.436023, 0.070555, -0.399958, -0.002942, -0.389827, -0.053310, -0.436875, -0.120494, -0.467525, -0.130737, -0.469208, -0.139518, -0.483799, -0.249585, -0.461691, -0.286263, -0.445886, -0.349392, -0.368362, -0.395348, -0.309523, -0.404625, -0.265168, -0.404579, -0.231877, -0.406477, -0.210197, -0.398377, -0.227762, -0.421289, -0.145140,
//    //0.000000, 0.000000, 0.842729, 1.083210, 0.535457, -0.268863, 0.592939, -0.293578, 0.562898, -0.361653, 0.593996, -0.326781, 0.656460, -0.322062, 0.460381, -0.363732, 0.342467, -0.414065, 0.366943, -0.356455, 0.361703, -0.337785, 0.327163, -0.404516, 0.285842, -0.431071, 0.267614, -0.405580, 0.220369, -0.446275, 0.238574, -0.386282, 0.254693, -0.343218, 0.152691, -0.381254, 0.120475, -0.344950, 0.090760, -0.339406, 0.068626, -0.294052, 0.041824, -0.297010, 0.004095, -0.323573, 0.016776, -0.270986, 0.033403, -0.219592, 0.084328, -0.217477, 0.164782, -0.221086, 0.093573, -0.255764, 0.030558, -0.274947, 0.038131, -0.273372, 0.026539, -0.283978, 0.031013, -0.253777, 0.083200, -0.204287, 0.049483, -0.165609, 0.025036, -0.071723, 0.033622, -0.140542, 0.082054, -0.176975, 0.067244, -0.184710, 0.030590, -0.134972, 0.016060, -0.169935, -0.056462, -0.057901, -0.008200, -0.113733, -0.037095, -0.188619, 0.027557, -0.244698, 0.041295, -0.326286, 0.022178, -0.296344, 0.078224, -0.306111, 0.027010, -0.258783, 0.100844, -0.217744, 0.034623, -0.270840, 0.030876, -0.338891, -0.023202, -0.284717, -0.073023, -0.214166, -0.075851, -0.246665, -0.024624, -0.246743, -0.087392, -0.260248, -0.130367, -0.304452, -0.095132, -0.276230, -0.071976, -0.211007, -0.146488, -0.213062,
//    0.000000, 0.000000, 0.573327, -1.195522, 0.659030, -0.250978, 0.692316, -0.243965, 0.620139, -0.238837, 0.512723, -0.314948, 0.450755, -0.355758, 0.431438, -0.343089, 0.383279, -0.376909, 0.379592, -0.401261, 0.371870, -0.355111, 0.328673, -0.362814, 0.279989, -0.357095, 0.252721, -0.378571, 0.223267, -0.368821, 0.181642, -0.390332, 0.165870, -0.347586, 0.121039, -0.351907, 0.082879, -0.336105, 0.052023, -0.324109, 0.036535, -0.286877, 0.028303, -0.279368, 0.027194, -0.245187, 0.032035, -0.233609, 0.048718, -0.222463, 0.051025, -0.222416, 0.035333, -0.229706, 0.049890, -0.220795, 0.042201, -0.226627, 0.024893, -0.238234, 0.014525, -0.264063, 0.010968, -0.248249, 0.016669, -0.223108, 0.018777, -0.217452, 0.007236, -0.212232, 0.012661, -0.180606, -0.014608, -0.158469, 0.000443, -0.187141, 0.014161, -0.195013, -0.016801, -0.183166, 0.003207, -0.167124, 0.003554, -0.205921, 0.022361, -0.235427, 0.027084, -0.240477, 0.004904, -0.259306, -0.005904, -0.238532, -0.053207, -0.261194, -0.037166, -0.221135, -0.029761, -0.204170, -0.082146, -0.235840, -0.083143, -0.217964, -0.103938, -0.224045, -0.101268, -0.243304, -0.120325, -0.223277, -0.159483, -0.229945, -0.133356, -0.233345, -0.202517, -0.317926, -0.180978, -0.262637, -0.121651, -0.207635, -0.210009, -0.204057,
//    0.000000, 0.000000, 0.753204, -0.134389, 0.820656, -0.127014, 0.730119, -0.225334, 0.697398, -0.273975, 0.666671, -0.321403, 0.608747, -0.352670, 0.573872, -0.371964, 0.514940, -0.380926, 0.464641, -0.420376, 0.391700, -0.423621, 0.365114, -0.420779, 0.343327, -0.419137, 0.310954, -0.406182, 0.280057, -0.381912, 0.273039, -0.383943, 0.245681, -0.396260, 0.223400, -0.385413, 0.194292, -0.373306, 0.188091, -0.371450, 0.170334, -0.358751, 0.159780, -0.358443, 0.156510, -0.330650, 0.174239, -0.336091, 0.192463, -0.322995, 0.152693, -0.298658, 0.141382, -0.321204, 0.137938, -0.307540, 0.154212, -0.302116, 0.138664, -0.323331, 0.114530, -0.331987, 0.110312, -0.333117, 0.095445, -0.349796, 0.082829, -0.349107, 0.056637, -0.360570, 0.045027, -0.369595, 0.031470, -0.394298, 0.029230, -0.393709, 0.010138, -0.409835, 0.012373, -0.376631, -0.007184, -0.366308, -0.031431, -0.351444, -0.038861, -0.354466, -0.036207, -0.362562, -0.018971, -0.324487, -0.029566, -0.307407, -0.070769, -0.308003, -0.050784, -0.294611, -0.024449, -0.228606, -0.038890, -0.223474, -0.007943, -0.240201, -0.048753, -0.284683, -0.096105, -0.299619, -0.074822, -0.300506, -0.103709, -0.340761, -0.160374, -0.338888, -0.135529, -0.340959, -0.095238, -0.311694, -0.112770, -0.342886, -0.181291, -0.318585,
//    0.000000, 0.000000, 0.851916, -0.088810, 0.737445, -0.214715, 0.712794, -0.262554, 0.635020, -0.331788, 0.579829, -0.356828, 0.476524, -0.383768, 0.446067, -0.393384, 0.395984, -0.410198, 0.351483, -0.395331, 0.316260, -0.385392, 0.285042, -0.378423, 0.243461, -0.389125, 0.208568, -0.376946, 0.195322, -0.350512, 0.173003, -0.332468, 0.161040, -0.311814, 0.141813, -0.321144, 0.119334, -0.316815, 0.110291, -0.304104, 0.106377, -0.305266, 0.090671, -0.280128, 0.097839, -0.267660, 0.094348, -0.256674, 0.101579, -0.254758, 0.112896, -0.252315, 0.120912, -0.244855, 0.109077, -0.266743, 0.085619, -0.279840, 0.074547, -0.276171, 0.077696, -0.265457, 0.072788, -0.282105, 0.056050, -0.276440, 0.038768, -0.272213, 0.027456, -0.268148, 0.030625, -0.250927, 0.029994, -0.248708, 0.032140, -0.246903, 0.032356, -0.225799, 0.045750, -0.253420, 0.065306, -0.268188, 0.056716, -0.262089, 0.056647, -0.286974, 0.041760, -0.304019, 0.024514, -0.320621, 0.010335, -0.322983, 0.003485, -0.327181, -0.021363, -0.351128, -0.045168, -0.354979, -0.067237, -0.371829, -0.117285, -0.357520, -0.143851, -0.359711, -0.171041, -0.359528, -0.213942, -0.324895, -0.221746, -0.308549, -0.247312, -0.268784, -0.263998, -0.258231, -0.269138, -0.222019, -0.275504, -0.226466, -0.291971, -0.187046,
//    0.000000, 0.000000, 0.799053, -0.352928, 0.870981, -0.207982, 0.818374, -0.224282, 0.784034, -0.252635, 0.726948, -0.345116, 0.652383, -0.383316, 0.618045, -0.410948, 0.555768, -0.461065, 0.530913, -0.475013, 0.447647, -0.493333, 0.418002, -0.474292, 0.378570, -0.498070, 0.362698, -0.485189, 0.372781, -0.487597, 0.336099, -0.460759, 0.262249, -0.451499, 0.221926, -0.511410, 0.166007, -0.507412, 0.151340, -0.475346, 0.137063, -0.498703, 0.109602, -0.461919, 0.089226, -0.445068, 0.083407, -0.432627, 0.062010, -0.381582, 0.032025, -0.371774, -0.015272, -0.393997, 0.025130, -0.353006, 0.052234, -0.342347, 0.016833, -0.350574, -0.014222, -0.346237, 0.039013, -0.290481, 0.041982, -0.285050, 0.019519, -0.281798, 0.035395, -0.276064, 0.007285, -0.249664, -0.008807, -0.268711, 0.049371, -0.299077, 0.055088, -0.293233, 0.080646, -0.297944, 0.075545, -0.311125, 0.093389, -0.350018, 0.055542, -0.295927, -0.038528, -0.311283, -0.057873, -0.369109, -0.032725, -0.329673, -0.014210, -0.355775, -0.052747, -0.315802, -0.081089, -0.319022, -0.153255, -0.296174, 0.008603, -0.302757, -0.066487, -0.342745, -0.048165, -0.190142, -0.177783, -0.257569, -0.226172, -0.320426, -0.104036, -0.242155, -0.064767, -0.165216, -0.059229, -0.199494, -0.072448, -0.155471, -0.091181, -0.263318,
//    0.000000, 0.000000, 0.985685, 0.024573, 0.718443, -0.229643, 0.656714, -0.292406, 0.592757, -0.325543, 0.530101, -0.349927, 0.448452, -0.373902, 0.408755, -0.371620, 0.368147, -0.371768, 0.348908, -0.361425, 0.321823, -0.367338, 0.287166, -0.361678, 0.238088, -0.374021, 0.216136, -0.371545, 0.191871, -0.357581, 0.162690, -0.350424, 0.131765, -0.333279, 0.119902, -0.317200, 0.116508, -0.301391, 0.116182, -0.299328, 0.106309, -0.297367, 0.097262, -0.288745, 0.097523, -0.287787, 0.078996, -0.296956, 0.075286, -0.288828, 0.058096, -0.282294, 0.046336, -0.261980, 0.039282, -0.260027, 0.030298, -0.241978, 0.009743, -0.244306, 0.009929, -0.225068, 0.013825, -0.229434, 0.010906, -0.213409, 0.033216, -0.212052, 0.032243, -0.224460, 0.030309, -0.216802, 0.038574, -0.220254, 0.052653, -0.218713, 0.035459, -0.236797, 0.035657, -0.249591, 0.027701, -0.246110, 0.027118, -0.244344, -0.006215, -0.250400, 0.000038, -0.272375, -0.006053, -0.266763, -0.035388, -0.276720, -0.029581, -0.272352, -0.060335, -0.298099, -0.068824, -0.276818, -0.095463, -0.270312, -0.116681, -0.281754, -0.135313, -0.260115, -0.155167, -0.274006, -0.165795, -0.241273, -0.187332, -0.220554, -0.175867, -0.191075, -0.188641, -0.181716, -0.189511, -0.160898, -0.177710, -0.145985, -0.201214, -0.145582,
//    //0.000000, 0.000000, 0.538660, -0.342025, 0.726851, -0.218684, 0.664586, -0.279765, 0.604420, -0.341264, 0.533743, -0.375294, 0.463557, -0.385951, 0.426343, -0.377595, 0.371961, -0.403738, 0.344039, -0.364108, 0.317474, -0.346987, 0.268894, -0.344574, 0.248120, -0.344928, 0.219063, -0.350137, 0.208505, -0.333979, 0.192045, -0.321222, 0.204822, -0.324358, 0.177167, -0.320247, 0.167486, -0.332482, 0.142018, -0.339395, 0.126585, -0.330882, 0.105986, -0.329194, 0.092406, -0.331170, 0.074076, -0.320422, 0.062273, -0.308905, 0.046274, -0.297971, 0.032415, -0.283348, 0.021380, -0.266024, 0.028001, -0.246290, 0.022570, -0.232033, 0.027461, -0.227764, 0.033782, -0.223486, 0.043345, -0.217382, 0.047455, -0.224651, 0.057576, -0.233855, 0.051051, -0.239789, 0.041493, -0.244690, 0.030570, -0.262237, 0.014495, -0.267577, 0.012534, -0.272813, 0.032206, -0.271399, 0.019235, -0.280302, 0.016516, -0.259418, 0.025219, -0.245032, 0.048969, -0.261341, 0.037177, -0.361092, 0.006072, -0.407374, -0.025867, -0.432121, -0.110372, -0.426983, -0.146883, -0.442846, -0.184869, -0.431133, -0.201259, -0.430402, -0.239830, -0.407620, -0.285123, -0.322597, -0.297334, -0.296194, -0.327660, -0.245987, -0.334715, -0.228858, -0.350221, -0.196938, -0.351946, -0.185923, -0.346112, -0.119728,
//    0.000000, 0.000000, 0.836675, -0.536966, 0.729249, -0.223360, 0.696810, -0.230862, 0.628564, -0.304741, 0.604573, -0.326600, 0.535278, -0.354195, 0.522555, -0.372037, 0.448685, -0.390184, 0.459261, -0.377482, 0.406040, -0.405524, 0.374540, -0.420794, 0.346459, -0.443457, 0.301590, -0.454074, 0.277939, -0.468975, 0.225902, -0.473836, 0.167265, -0.453537, 0.126250, -0.458080, 0.094595, -0.434348, 0.057027, -0.400445, 0.035486, -0.368792, 0.029866, -0.336570, 0.017759, -0.311727, 0.029377, -0.286341, 0.037060, -0.272872, 0.056026, -0.265484, 0.054273, -0.274805, 0.051638, -0.282961, 0.035868, -0.288066, 0.025163, -0.294064, -0.003090, -0.283483, -0.010977, -0.273620, -0.011884, -0.256618, -0.008440, -0.239216, -0.013106, -0.241385, -0.003680, -0.225199, 0.011769, -0.236616, 0.027165, -0.229070, 0.018544, -0.244070, 0.017294, -0.260083, 0.008018, -0.256027, -0.005511, -0.266622, -0.011760, -0.236113, -0.008501, -0.272309, -0.027421, -0.270298, -0.039310, -0.263263, -0.050538, -0.281274, -0.061062, -0.284671, -0.059026, -0.257125, -0.090959, -0.276699, -0.095294, -0.270575, -0.113032, -0.263068, -0.143058, -0.267651, -0.159882, -0.259749, -0.156950, -0.237597, -0.162952, -0.232086, -0.183835, -0.193251, -0.207723, -0.241117, -0.234516, -0.216685, -0.229551, -0.201226,
//    //0.000000, 0.000000, 0.616545, -0.460665, 0.717684, -0.243170, 0.653430, -0.271109, 0.603438, -0.290770, 0.521418, -0.318444, 0.452391, -0.331174, 0.402899, -0.331190, 0.336791, -0.313772, 0.332771, -0.298600, 0.289639, -0.292542, 0.296419, -0.298595, 0.297421, -0.307111, 0.289683, -0.301169, 0.283182, -0.320882, 0.250077, -0.313870, 0.216410, -0.287994, 0.219824, -0.273750, 0.234253, -0.267325, 0.233041, -0.266451, 0.224327, -0.293302, 0.224408, -0.309971, 0.209701, -0.311470, 0.186119, -0.312812, 0.174178, -0.306494, 0.176853, -0.306773, 0.174806, -0.326731, 0.162246, -0.327410, 0.164669, -0.337031, 0.162498, -0.345424, 0.159092, -0.358448, 0.147738, -0.383018, 0.135193, -0.404752, 0.086457, -0.413917, 0.054285, -0.420427, 0.035039, -0.405594, 0.015508, -0.409915, 0.016380, -0.409890, 0.011662, -0.404918, -0.010779, -0.411002, -0.032654, -0.410371, -0.039465, -0.418828, -0.078285, -0.422466, -0.103919, -0.414360, -0.141940, -0.399272, -0.125082, -0.433481, -0.161110, -0.465241, -0.221415, -0.420276, -0.267326, -0.405642, -0.286178, -0.382420, -0.289339, -0.375321, -0.320269, -0.328760, -0.354005, -0.303783, -0.401334, -0.226706, -0.412720, -0.204357, -0.399867, -0.127755, -0.402938, -0.097035, -0.372665, -0.047333, -0.377728, -0.014451, -0.333399, 0.016870,
//    0.000000, 0.000000, 0.852109, 0.018107, 0.741736, -0.183834, 0.712202, -0.218586, 0.627092, -0.313316, 0.588577, -0.357823, 0.500631, -0.389450, 0.456403, -0.397864, 0.397285, -0.399537, 0.352422, -0.406872, 0.326501, -0.409149, 0.279114, -0.390656, 0.248852, -0.382830, 0.218300, -0.380350, 0.194681, -0.368802, 0.167802, -0.359562, 0.137511, -0.335576, 0.141253, -0.326396, 0.133259, -0.321631, 0.121422, -0.309444, 0.106346, -0.308621, 0.092932, -0.287568, 0.082845, -0.277362, 0.080715, -0.261768, 0.098865, -0.249878, 0.097081, -0.248430, 0.107381, -0.277283, 0.102300, -0.283787, 0.077656, -0.274410, 0.079855, -0.278216, 0.077927, -0.290983, 0.057956, -0.285780, 0.056701, -0.269090, 0.045210, -0.273457, 0.037143, -0.264206, 0.034453, -0.257672, 0.021714, -0.251529, 0.021991, -0.255462, 0.028769, -0.250714, 0.030685, -0.255405, 0.027441, -0.243572, 0.042545, -0.269258, 0.050947, -0.291498, 0.031678, -0.294875, 0.030964, -0.318905, 0.012251, -0.311705, -0.003841, -0.310412, -0.014846, -0.334234, -0.051547, -0.335147, -0.078446, -0.354679, -0.132254, -0.342583, -0.140692, -0.346258, -0.166228, -0.319162, -0.192337, -0.318830, -0.238809, -0.329451, -0.223607, -0.290072, -0.251722, -0.246271, -0.240201, -0.222951, -0.218423, -0.237997, -0.260546, -0.184337,
//    0.000000, 0.000000, 0.661590, -0.146071, 0.727470, -0.227596, 0.705255, -0.258266, 0.607090, -0.339244, 0.558080, -0.375469, 0.482044, -0.391098, 0.434714, -0.406859, 0.367660, -0.406158, 0.333413, -0.389793, 0.291790, -0.376368, 0.266690, -0.372936, 0.243723, -0.358509, 0.217188, -0.357365, 0.204309, -0.345948, 0.200550, -0.334980, 0.182570, -0.333543, 0.179005, -0.328190, 0.166559, -0.349677, 0.132060, -0.357512, 0.109921, -0.344430, 0.090500, -0.335182, 0.081788, -0.330324, 0.064035, -0.320650, 0.047996, -0.309109, 0.036569, -0.305829, 0.018461, -0.297132, 0.007895, -0.272081, 0.006658, -0.256333, 0.012814, -0.243577, 0.020046, -0.232688, 0.020989, -0.224229, 0.037712, -0.220914, 0.046188, -0.220117, 0.042629, -0.233377, 0.041295, -0.238090, 0.047916, -0.240213, 0.032291, -0.247012, 0.035690, -0.255541, 0.034840, -0.254799, 0.033026, -0.269440, 0.020546, -0.277582, 0.028019, -0.266859, 0.026899, -0.305166, 0.036456, -0.316945, -0.004807, -0.339541, -0.012628, -0.374264, -0.053305, -0.380412, -0.099311, -0.406631, -0.119640, -0.404870, -0.205369, -0.398474, -0.230037, -0.399010, -0.258425, -0.379197, -0.324169, -0.347118, -0.312683, -0.288525, -0.339572, -0.249434, -0.346555, -0.227418, -0.348071, -0.210184, -0.363043, -0.161862, -0.348490, -0.134011,
//    0.000000, 0.000000, 0.569937, -0.500902, 0.661459, -0.248566, 0.656703, -0.247473, 0.575544, -0.293428, 0.522114, -0.320277, 0.458556, -0.341770, 0.400872, -0.343835, 0.347546, -0.319804, 0.353597, -0.303451, 0.338789, -0.292889, 0.313986, -0.287879, 0.301555, -0.290730, 0.294518, -0.300329, 0.271980, -0.320209, 0.249940, -0.310103, 0.209877, -0.285968, 0.218035, -0.274319, 0.227074, -0.267798, 0.237079, -0.263090, 0.230404, -0.301337, 0.227731, -0.308385, 0.207103, -0.326302, 0.186084, -0.327126, 0.181750, -0.321533, 0.181248, -0.310452, 0.177004, -0.323168, 0.166193, -0.337454, 0.167843, -0.331270, 0.169717, -0.354572, 0.152004, -0.364874, 0.145352, -0.385672, 0.121538, -0.408792, 0.096369, -0.418466, 0.073115, -0.421068, 0.043978, -0.412126, 0.026063, -0.404879, 0.018704, -0.425482, -0.011394, -0.421241, -0.010772, -0.401804, -0.041484, -0.412602, -0.042937, -0.408677, -0.043680, -0.421349, -0.061814, -0.417417, -0.105304, -0.453676, -0.118857, -0.426749, -0.145821, -0.464283, -0.198141, -0.413328, -0.257517, -0.431408, -0.286179, -0.389454, -0.303422, -0.378507, -0.329317, -0.358868, -0.359975, -0.327877, -0.394207, -0.285105, -0.370182, -0.188409, -0.405802, -0.144573, -0.365116, -0.103712, -0.337767, -0.069548, -0.339624, -0.013314, -0.312835, -0.023094,
//    0.000000, 0.000000, 0.748315, -0.113948, 0.757689, -0.213124, 0.744981, -0.242662, 0.669241, -0.333342, 0.604170, -0.388050, 0.535193, -0.423217, 0.482126, -0.438237, 0.417513, -0.448509, 0.377154, -0.440915, 0.308734, -0.426356, 0.283830, -0.423971, 0.250563, -0.406587, 0.219172, -0.413854, 0.193639, -0.399878, 0.174324, -0.377854, 0.153116, -0.372627, 0.161464, -0.370176, 0.143087, -0.375892, 0.117274, -0.377454, 0.085577, -0.362382, 0.067585, -0.346446, 0.051079, -0.345789, 0.041350, -0.332186, 0.030509, -0.320970, 0.019151, -0.314910, 0.007371, -0.294194, 0.002545, -0.273188, -0.003047, -0.258077, -0.003989, -0.240487, 0.001598, -0.229838, 0.001828, -0.222942, 0.014425, -0.213687, 0.030397, -0.229219, 0.028975, -0.233218, 0.026533, -0.238034, 0.037122, -0.243422, 0.032778, -0.255231, 0.016138, -0.266657, 0.022212, -0.265238, 0.016464, -0.263085, 0.010038, -0.274765, 0.010550, -0.267763, 0.018010, -0.266792, 0.037885, -0.291295, 0.026416, -0.324022, -0.020837, -0.376319, -0.066593, -0.411406, -0.109418, -0.424328, -0.141609, -0.445422, -0.201892, -0.412781, -0.227699, -0.399575, -0.279692, -0.370116, -0.310040, -0.320836, -0.333043, -0.293701, -0.334697, -0.260704, -0.356948, -0.220880, -0.351220, -0.200806, -0.344912, -0.186237, -0.357121, -0.129087,
//    0.000000, 0.000000, 0.644156, -0.034087, 0.768831, -0.083664, 0.813000, -0.163744, 0.763590, -0.260742, 0.736570, -0.319325, 0.722364, -0.359263, 0.685478, -0.396772, 0.612908, -0.446788, 0.594980, -0.452047, 0.519815, -0.467786, 0.485685, -0.488490, 0.471496, -0.505447, 0.446857, -0.513758, 0.401022, -0.532781, 0.341307, -0.536041, 0.266763, -0.564540, 0.212747, -0.565833, 0.176682, -0.543788, 0.134612, -0.544361, 0.099849, -0.510612, 0.088206, -0.482874, 0.058283, -0.436631, 0.048956, -0.421661, 0.045231, -0.422096, 0.031307, -0.413232, 0.042062, -0.396516, 0.030598, -0.373727, 0.026470, -0.368495, 0.016126, -0.360218, -0.003569, -0.342872, 0.008515, -0.337286, 0.025159, -0.317910, 0.041578, -0.326675, 0.027641, -0.332764, 0.000052, -0.333578, -0.001638, -0.353999, -0.004495, -0.339264, -0.019225, -0.367932, -0.088526, -0.337917, -0.039455, -0.306938, -0.023778, -0.374948, -0.050014, -0.337339, -0.051671, -0.310830, -0.094805, -0.304502, -0.088927, -0.315140, -0.098723, -0.318893, -0.093362, -0.318787, -0.097021, -0.316786, -0.117630, -0.302018, -0.195426, -0.311110, -0.172721, -0.250619, -0.145583, -0.241398, -0.156415, -0.279005, -0.176831, -0.276566, -0.186806, -0.272845, -0.167379, -0.256347, -0.193807, -0.265150, -0.215015, -0.233560, -0.213130, -0.260699,
//    //0.000000, 0.000000, 0.816253, -0.183439, 0.816974, -0.183906, 0.793909, -0.221261, 0.767983, -0.289786, 0.726080, -0.342013, 0.657873, -0.393229, 0.630615, -0.434481, 0.547875, -0.446821, 0.514115, -0.469085, 0.491663, -0.486199, 0.405159, -0.527261, 0.347865, -0.537140, 0.299983, -0.556929, 0.267401, -0.559383, 0.204585, -0.553520, 0.108630, -0.506909, 0.080252, -0.462390, 0.072280, -0.432724, 0.054407, -0.416554, 0.046718, -0.403559, 0.039929, -0.380524, 0.019025, -0.371422, 0.017243, -0.354517, 0.006911, -0.336880, 0.003211, -0.321587, 0.001978, -0.303971, -0.011662, -0.283064, -0.010892, -0.277007, -0.014839, -0.252343, -0.014632, -0.250628, -0.004963, -0.243570, 0.004078, -0.233196, 0.004021, -0.225141, 0.002175, -0.231286, 0.001169, -0.221062, 0.012018, -0.229410, 0.012310, -0.216094, 0.045911, -0.211540, 0.035570, -0.221139, 0.031994, -0.230337, 0.021671, -0.239543, 0.040645, -0.237276, 0.046033, -0.269532, 0.023729, -0.305513, 0.021102, -0.310051, -0.000835, -0.330004, -0.037614, -0.367776, -0.067945, -0.382680, -0.080739, -0.358905, -0.090479, -0.329442, -0.139161, -0.347346, -0.183769, -0.333591, -0.196482, -0.297636, -0.205252, -0.280416, -0.228839, -0.257323, -0.221364, -0.250874, -0.254509, -0.239198, -0.279271, -0.219440, -0.288858, -0.201321,
//    0.000000, 0.000000, 0.891001, -0.094080, 0.892346, -0.123607, 0.893315, -0.186391, 0.873954, -0.281110, 0.850081, -0.339066, 0.806190, -0.426297, 0.748240, -0.498077, 0.666479, -0.549053, 0.603993, -0.577001, 0.529256, -0.588940, 0.453056, -0.597356, 0.390974, -0.592511, 0.344355, -0.603045, 0.289035, -0.598453, 0.249708, -0.580855, 0.203301, -0.552433, 0.163084, -0.544211, 0.130657, -0.525367, 0.116412, -0.503741, 0.092324, -0.488884, 0.063864, -0.449848, 0.046995, -0.428837, 0.040898, -0.415764, 0.039422, -0.393446, 0.052852, -0.382415, 0.046854, -0.371577, 0.026806, -0.364626, 0.002877, -0.382753, -0.030278, -0.380675, -0.029142, -0.351009, -0.019575, -0.342379, -0.010519, -0.341596, -0.012083, -0.351207, -0.024091, -0.359075, -0.040471, -0.361736, -0.076989, -0.344167, -0.077710, -0.323736, -0.077561, -0.292619, -0.078214, -0.282318, -0.069609, -0.270219, -0.072030, -0.273995, -0.084074, -0.264973, -0.069001, -0.272941, -0.037164, -0.293185, -0.040229, -0.301761, -0.072197, -0.283878, -0.063549, -0.307612, -0.069078, -0.351029, -0.111299, -0.334067, -0.130432, -0.334882, -0.205934, -0.350466, -0.252147, -0.323565, -0.258071, -0.300210, -0.245881, -0.230835, -0.288115, -0.206963, -0.289711, -0.167836, -0.278882, -0.154140, -0.248959, -0.144975, -0.278046, -0.111837,
//    0.000000, 0.000000, 0.840216, -0.069295, 0.876725, -0.108391, 0.887733, -0.127833, 0.879117, -0.196999, 0.876076, -0.258116, 0.880452, -0.318554, 0.852578, -0.391601, 0.799021, -0.448569, 0.746744, -0.497338, 0.698202, -0.554054, 0.628983, -0.592856, 0.598000, -0.604373, 0.539101, -0.629320, 0.496523, -0.639935, 0.448046, -0.646613, 0.369226, -0.689443, 0.308284, -0.707372, 0.255992, -0.685724, 0.213801, -0.693595, 0.152781, -0.678309, 0.092914, -0.629010, 0.070082, -0.605774, 0.024957, -0.599281, 0.009342, -0.543829, -0.017635, -0.509083, -0.035056, -0.488313, -0.030993, -0.462255, -0.019055, -0.439193, -0.028203, -0.449559, -0.061242, -0.429578, -0.081067, -0.379306, -0.055886, -0.352213, -0.048235, -0.348830, -0.052917, -0.328671, -0.053637, -0.307546, -0.034073, -0.298065, -0.007161, -0.312019, -0.023021, -0.341889, -0.013081, -0.289534, -0.018021, -0.302617, -0.018217, -0.344095, -0.006471, -0.330434, -0.013888, -0.372744, -0.032282, -0.305194, -0.071419, -0.318150, -0.108806, -0.351089, -0.124768, -0.338114, -0.131958, -0.384129, -0.117369, -0.365111, -0.121382, -0.320553, -0.082842, -0.338909, -0.160751, -0.383935, -0.138837, -0.289495, -0.177009, -0.269325, -0.194510, -0.287281, -0.157219, -0.295086, -0.188737, -0.316035, -0.147067, -0.283773, -0.185211, -0.313216,
//    0.000000, 0.000000, 0.866933, -0.064254, 0.883600, -0.076752, 0.877153, -0.113527, 0.894062, -0.189928, 0.882977, -0.250659, 0.868174, -0.296524, 0.839712, -0.376777, 0.811269, -0.435500, 0.737916, -0.493551, 0.692798, -0.539747, 0.641695, -0.574411, 0.592484, -0.615181, 0.534374, -0.638014, 0.516447, -0.651456, 0.485728, -0.674661, 0.342049, -0.690094, 0.332443, -0.707284, 0.329421, -0.669844, 0.226456, -0.674212, 0.193541, -0.679588, 0.130920, -0.642157, 0.067969, -0.590741, 0.044420, -0.578783, 0.025890, -0.541197, -0.011184, -0.493642, -0.035151, -0.477448, -0.037970, -0.452702, -0.042936, -0.442630, -0.086141, -0.446601, -0.118346, -0.430574, -0.108954, -0.382714, -0.028659, -0.337369, -0.042357, -0.347663, -0.053366, -0.338269, -0.064383, -0.314831, -0.057421, -0.337421, -0.038976, -0.329064, 0.032927, -0.345321, 0.050188, -0.302384, 0.069354, -0.290078, 0.071288, -0.367512, 0.098267, -0.349167, 0.032057, -0.390847, 0.044554, -0.371449, 0.010331, -0.342720, 0.017390, -0.272435, 0.024220, -0.332151, 0.011709, -0.394404, -0.024540, -0.370114, 0.022397, -0.358805, -0.039087, -0.366283, -0.111857, -0.381555, -0.158033, -0.321360, -0.109251, -0.341892, -0.154412, -0.312241, -0.146652, -0.267927, -0.184422, -0.290804, -0.195647, -0.204985, -0.142587, -0.275079,
//    0.000000, 0.000000, 0.872567, -0.131979, 0.865662, -0.126941, 0.864418, -0.161012, 0.837706, -0.241170, 0.809709, -0.288494, 0.787978, -0.380831, 0.757005, -0.381121, 0.661919, -0.412767, 0.673339, -0.464993, 0.621518, -0.497980, 0.567906, -0.559038, 0.499634, -0.616285, 0.431868, -0.628684, 0.394328, -0.633847, 0.285556, -0.627760, 0.264493, -0.630151, 0.210138, -0.601451, 0.167849, -0.589536, 0.134623, -0.575145, 0.102743, -0.529939, 0.083421, -0.517292, 0.071377, -0.502877, 0.057808, -0.492441, 0.035965, -0.486439, 0.015844, -0.474642, 0.008461, -0.458148, -0.029439, -0.428766, -0.030110, -0.414161, -0.036602, -0.395847, -0.034872, -0.366081, -0.039397, -0.367526, -0.046063, -0.349597, -0.059407, -0.335215, -0.052339, -0.337047, -0.064263, -0.329958, -0.058751, -0.326301, -0.057131, -0.310616, -0.062322, -0.308274, -0.053888, -0.330028, -0.064247, -0.328128, -0.079326, -0.325855, -0.084416, -0.328281, -0.074511, -0.323556, -0.082341, -0.345962, -0.114506, -0.361140, -0.125420, -0.359948, -0.151889, -0.351249, -0.168425, -0.345236, -0.190588, -0.359588, -0.195491, -0.335557, -0.222829, -0.339583, -0.251775, -0.307775, -0.283384, -0.332691, -0.301020, -0.304844, -0.327417, -0.275866, -0.353236, -0.259601, -0.362656, -0.208068, -0.405744, -0.179179, -0.418320, -0.137773,
//    0.000000, 0.000000, 0.889892, -0.048943, 0.871978, -0.067962, 0.879542, -0.109762, 0.890783, -0.196216, 0.905742, -0.235964, 0.901604, -0.304668, 0.882443, -0.364041, 0.861364, -0.462134, 0.822227, -0.498692, 0.772633, -0.562402, 0.728442, -0.607243, 0.661335, -0.644075, 0.606382, -0.694134, 0.572500, -0.702373, 0.442907, -0.715718, 0.416357, -0.759427, 0.350262, -0.777422, 0.237265, -0.764815, 0.197455, -0.773195, 0.115774, -0.732484, 0.084051, -0.691733, 0.039689, -0.664901, 0.014740, -0.660501, -0.058450, -0.624838, -0.069487, -0.565415, -0.084671, -0.533293, -0.114029, -0.518209, -0.113559, -0.520714, -0.144387, -0.449139, -0.148529, -0.436210, -0.197052, -0.408905, -0.195079, -0.361280, -0.150564, -0.382673, -0.136100, -0.367255, -0.112597, -0.345339, -0.093328, -0.328759, -0.078319, -0.307472, -0.104667, -0.359805, -0.102283, -0.332981, -0.085733, -0.308224, -0.122412, -0.336791, -0.099266, -0.344775, -0.079450, -0.312772, -0.094586, -0.357193, -0.106761, -0.350945, -0.128389, -0.339371, -0.157193, -0.342410, -0.199995, -0.348196, -0.165307, -0.325753, -0.180278, -0.235096, -0.149790, -0.252320, -0.186944, -0.268166, -0.237088, -0.214144, -0.207104, -0.231165, -0.272719, -0.164902, -0.319441, -0.146035, -0.211069, -0.178587, -0.252390, -0.222105, -0.264853, -0.225944,
//    0.000000, 0.000000, 0.884392, -0.063899, 0.874717, -0.127320, 0.874298, -0.166290, 0.837017, -0.256517, 0.814825, -0.295235, 0.773130, -0.364131, 0.743743, -0.419178, 0.692665, -0.452166, 0.644285, -0.481195, 0.604840, -0.525410, 0.549249, -0.579022, 0.514003, -0.590643, 0.447904, -0.617912, 0.389545, -0.629251, 0.320312, -0.632036, 0.227519, -0.642201, 0.189850, -0.598855, 0.157307, -0.572425, 0.126488, -0.564594, 0.101377, -0.538568, 0.083901, -0.512713, 0.067098, -0.493489, 0.054307, -0.486242, 0.033880, -0.479783, 0.022674, -0.470415, 0.011011, -0.450199, -0.021340, -0.426860, -0.022828, -0.415229, -0.040971, -0.393601, -0.050466, -0.376628, -0.059699, -0.363855, -0.064009, -0.355766, -0.055415, -0.351198, -0.057161, -0.341195, -0.062383, -0.332431, -0.053489, -0.320384, -0.056741, -0.331562, -0.065847, -0.319457, -0.061415, -0.337319, -0.076557, -0.311894, -0.065961, -0.328655, -0.073750, -0.338104, -0.073823, -0.333428, -0.079872, -0.353668, -0.092692, -0.347826, -0.100941, -0.337307, -0.139256, -0.373846, -0.165068, -0.368902, -0.186958, -0.364384, -0.203313, -0.347643, -0.218837, -0.329404, -0.266978, -0.347100, -0.296543, -0.319440, -0.303868, -0.299562, -0.339223, -0.284168, -0.364412, -0.251506, -0.370650, -0.236883, -0.399042, -0.206269, -0.419411, -0.148405,
//    0.000000, 0.000000, 0.872963, -0.059789, 0.882117, -0.087338, 0.887338, -0.118289, 0.901815, -0.181419, 0.886368, -0.236843, 0.889071, -0.308280, 0.859698, -0.374978, 0.822174, -0.442289, 0.778739, -0.504527, 0.733240, -0.565235, 0.661136, -0.595592, 0.616450, -0.611618, 0.575852, -0.642234, 0.526315, -0.662425, 0.475256, -0.692487, 0.397226, -0.737420, 0.321173, -0.751396, 0.268908, -0.718487, 0.245834, -0.715800, 0.147017, -0.678967, 0.112367, -0.665391, 0.078820, -0.663480, 0.048028, -0.631711, 0.006554, -0.586336, -0.017448, -0.544064, -0.040586, -0.533284, -0.033942, -0.469349, -0.027605, -0.457293, -0.055034, -0.453871, -0.114194, -0.425320, -0.107625, -0.389901, -0.080437, -0.376729, -0.085241, -0.357224, -0.066890, -0.334338, -0.060125, -0.346430, -0.050347, -0.318928, -0.065884, -0.312334, -0.063760, -0.276918, -0.021958, -0.299690, -0.033706, -0.314327, -0.042617, -0.351006, -0.023410, -0.401666, -0.053668, -0.377357, -0.078587, -0.355722, -0.088086, -0.354077, -0.095419, -0.413064, -0.086440, -0.377303, -0.133209, -0.361351, -0.180711, -0.371310, -0.176497, -0.342949, -0.201198, -0.309759, -0.247143, -0.353766, -0.214789, -0.294133, -0.188805, -0.266287, -0.116598, -0.269442, -0.096600, -0.304945, -0.171308, -0.278182, -0.235047, -0.296659, -0.189514, -0.273374,
//    0.000000, 0.000000, 0.880709, -0.057076, 0.888093, -0.076963, 0.903179, -0.104925, 0.912489, -0.150316, 0.920628, -0.205445, 0.924704, -0.256505, 0.927458, -0.313760, 0.874957, -0.414334, 0.845338, -0.496977, 0.814814, -0.541857, 0.761895, -0.576407, 0.719508, -0.615745, 0.673957, -0.669751, 0.650822, -0.695410, 0.591871, -0.742775, 0.491104, -0.792983, 0.408947, -0.809358, 0.385797, -0.817669, 0.310887, -0.825217, 0.249519, -0.805991, 0.137991, -0.783636, 0.070397, -0.744814, 0.032784, -0.720687, -0.008151, -0.652221, -0.038695, -0.562960, -0.038485, -0.579765, -0.055128, -0.561555, -0.049849, -0.563402, -0.079176, -0.548675, -0.076296, -0.474559, -0.107410, -0.429862, -0.100213, -0.419956, -0.084729, -0.396036, -0.069797, -0.358084, -0.071396, -0.338463, -0.046901, -0.328214, -0.043680, -0.349608, -0.039934, -0.348101, -0.028067, -0.331446, -0.047294, -0.315714, -0.032175, -0.368153, -0.040469, -0.392108, -0.030258, -0.421405, -0.083679, -0.440806, -0.116438, -0.432726, -0.140410, -0.452969, -0.195809, -0.469020, -0.212730, -0.417064, -0.188568, -0.352285, -0.237802, -0.307266, -0.210555, -0.321694, -0.152779, -0.410645, -0.169557, -0.346277, -0.173019, -0.276912, -0.194388, -0.251237, -0.191728, -0.232279, -0.202690, -0.245398, -0.163952, -0.271921, -0.146746, -0.238757,
//    0.000000, 0.000000, 0.793074, -0.033317, 0.889291, -0.025209, 0.916914, -0.074804, 0.920599, -0.121201, 0.922886, -0.182630, 0.965885, -0.247437, 0.970977, -0.301272, 0.934064, -0.371855, 0.895005, -0.437536, 0.896099, -0.540606, 0.858336, -0.614376, 0.826758, -0.658822, 0.761438, -0.733238, 0.722033, -0.789810, 0.668242, -0.848002, 0.533842, -0.868060, 0.461497, -0.908747, 0.420540, -0.955027, 0.303576, -0.941405, 0.202955, -0.903450, 0.110993, -0.884866, 0.075922, -0.818875, -0.011072, -0.768608, -0.049998, -0.742521, -0.092882, -0.657536, -0.098547, -0.642008, -0.132354, -0.617507, -0.143164, -0.589829, -0.189765, -0.574119, -0.222249, -0.524361, -0.219595, -0.477938, -0.190487, -0.412384, -0.193773, -0.380906, -0.197472, -0.364895, -0.173479, -0.346309, -0.128302, -0.310898, -0.119464, -0.295814, -0.127725, -0.308576, -0.095205, -0.286915, -0.069317, -0.280344, -0.101230, -0.306303, -0.106376, -0.375942, -0.072828, -0.389148, -0.109938, -0.372168, -0.123395, -0.344930, -0.158080, -0.323054, -0.214289, -0.383791, -0.195626, -0.349471, -0.191631, -0.372309, -0.163770, -0.363199, -0.191560, -0.342393, -0.248238, -0.197714, -0.284818, -0.193613, -0.237667, -0.161989, -0.251038, -0.213290, -0.180049, -0.296519, -0.205532, -0.241459, -0.232228, -0.208012, -0.218818, -0.189768,
//    //0.000000, 0.000000, 0.889171, -0.021718, 0.908150, -0.049986, 0.920173, -0.069642, 0.924178, -0.104215, 0.961037, -0.146782, 0.971257, -0.200026, 0.966780, -0.253545, 0.968336, -0.327663, 0.968335, -0.389390, 0.953733, -0.485021, 0.919580, -0.539637, 0.892612, -0.613789, 0.855862, -0.664276, 0.837861, -0.723303, 0.756688, -0.775310, 0.625098, -0.873806, 0.566927, -0.952185, 0.504159, -0.919353, 0.390915, -0.948786, 0.264542, -0.974683, 0.200681, -0.956955, 0.126831, -0.948234, 0.030893, -0.866730, -0.004232, -0.831129, -0.032936, -0.748455, -0.050308, -0.706218, -0.068799, -0.691436, -0.094948, -0.682179, -0.097971, -0.675237, -0.110729, -0.608237, -0.135166, -0.600166, -0.128137, -0.581812, -0.089604, -0.566096, -0.100549, -0.575901, -0.139611, -0.593095, -0.179236, -0.585816, -0.172536, -0.521143, -0.184356, -0.520994, -0.255434, -0.459821, -0.159134, -0.454598, -0.198424, -0.452778, -0.198036, -0.373643, -0.172073, -0.446383, -0.173419, -0.410364, -0.211828, -0.331895, -0.276522, -0.314978, -0.184723, -0.274694, -0.143519, -0.247895, -0.191885, -0.251503, -0.169428, -0.170145, -0.166648, -0.209212, -0.212484, -0.175966, -0.277142, -0.207055, -0.273149, -0.204028, -0.315306, -0.176119, -0.353697, -0.174274, -0.341708, -0.223647, -0.317355, -0.196084, -0.355028, -0.211624,
//    0.000000, 0.000000, 0.921977, -0.018117, 0.902148, -0.031983, 0.920132, -0.069001, 0.919797, -0.105967, 0.945761, -0.155318, 0.975099, -0.193527, 0.976559, -0.248140, 0.971906, -0.323542, 0.985556, -0.361042, 0.991636, -0.441872, 0.956604, -0.521222, 0.926685, -0.598755, 0.913561, -0.656085, 0.888215, -0.745067, 0.840415, -0.844107, 0.753881, -0.925206, 0.642808, -0.972495, 0.546922, -1.016049, 0.446168, -1.025515, 0.293329, -1.028213, 0.228647, -1.000466, 0.152774, -0.976997, 0.089217, -0.933173, -0.012742, -0.878513, -0.021502, -0.815139, -0.074101, -0.774436, -0.063635, -0.750924, -0.085298, -0.744579, -0.140925, -0.698978, -0.178748, -0.631317, -0.151448, -0.621565, -0.112973, -0.598497, -0.119259, -0.577888, -0.125341, -0.593314, -0.151331, -0.594579, -0.163432, -0.588183, -0.218143, -0.544497, -0.234050, -0.548357, -0.197574, -0.538853, -0.255074, -0.478814, -0.225892, -0.492650, -0.265447, -0.443948, -0.250561, -0.482969, -0.345613, -0.404713, -0.347428, -0.399434, -0.349763, -0.396116, -0.342308, -0.393032, -0.386873, -0.341358, -0.335462, -0.323158, -0.319455, -0.356811, -0.343107, -0.305995, -0.302155, -0.285281, -0.302488, -0.272618, -0.323359, -0.270154, -0.345365, -0.196052, -0.310297, -0.185504, -0.365264, -0.157698, -0.380984, -0.190455, -0.341271, -0.237632,
//    0.000000, 0.000000, 0.885218, -0.016714, 0.904987, -0.042021, 0.918811, -0.054107, 0.944703, -0.079509, 0.969269, -0.126824, 0.982058, -0.146748, 1.014124, -0.198260, 1.019222, -0.263637, 1.031116, -0.310422, 1.035267, -0.399457, 1.036098, -0.485124, 1.014784, -0.567485, 0.982869, -0.642484, 0.952116, -0.709537, 0.887553, -0.791538, 0.861790, -0.892826, 0.799664, -0.978106, 0.682824, -1.008740, 0.610052, -1.048608, 0.450058, -1.116222, 0.335809, -1.103594, 0.247016, -1.079213, 0.172140, -1.066574, 0.041617, -0.996927, -0.048261, -0.957249, -0.068586, -0.902770, -0.119990, -0.831115, -0.143952, -0.807252, -0.173577, -0.779874, -0.212567, -0.694132, -0.231271, -0.633849, -0.281449, -0.579689, -0.258685, -0.562347, -0.239346, -0.507126, -0.215315, -0.476285, -0.193188, -0.446314, -0.169941, -0.440940, -0.169773, -0.427451, -0.162411, -0.447321, -0.130252, -0.481481, -0.115979, -0.469413, -0.201956, -0.446095, -0.174757, -0.482226, -0.218241, -0.508796, -0.195571, -0.529440, -0.240425, -0.451304, -0.250347, -0.486250, -0.265155, -0.442568, -0.281892, -0.381656, -0.334088, -0.396428, -0.294824, -0.402284, -0.329637, -0.360033, -0.321033, -0.336552, -0.321815, -0.347723, -0.308140, -0.301970, -0.314190, -0.297061, -0.329254, -0.289272, -0.296718, -0.281342, -0.288173, -0.287513,
//    0.000000, 0.000000, 0.937816, -0.027022, 0.912877, -0.039047, 0.921136, -0.053199, 0.948104, -0.083711, 0.969645, -0.123886, 0.977890, -0.187561, 0.994828, -0.219542, 1.003870, -0.293304, 1.007327, -0.346328, 1.010740, -0.439293, 1.016852, -0.491926, 1.008213, -0.576651, 0.994065, -0.693428, 0.944773, -0.776373, 0.897117, -0.860661, 0.819419, -0.983887, 0.689194, -1.087190, 0.598105, -1.129489, 0.469808, -1.166247, 0.311801, -1.181866, 0.208027, -1.136181, 0.094899, -1.119619, -0.012545, -1.051870, -0.064653, -0.995679, -0.119164, -0.965414, -0.198661, -0.883090, -0.283473, -0.811017, -0.292042, -0.746446, -0.307530, -0.682567, -0.321259, -0.589496, -0.302018, -0.539006, -0.282996, -0.508544, -0.263509, -0.448821, -0.241772, -0.418705, -0.235448, -0.399810, -0.230034, -0.398573, -0.197740, -0.384355, -0.200319, -0.381036, -0.163491, -0.358923, -0.152106, -0.377068, -0.147115, -0.395293, -0.186235, -0.410238, -0.151062, -0.387573, -0.144655, -0.401008, -0.162468, -0.418786, -0.171089, -0.429585, -0.191624, -0.462709, -0.229158, -0.417086, -0.294268, -0.457826, -0.291100, -0.475984, -0.327644, -0.386116, -0.322988, -0.392148, -0.358327, -0.367354, -0.355470, -0.338101, -0.340841, -0.295436, -0.335790, -0.306755, -0.327772, -0.278520, -0.343027, -0.236205, -0.394559, -0.179177,
//    0.000000, 0.000000, 0.902099, -0.023702, 0.922361, -0.038414, 0.933913, -0.049576, 0.954831, -0.078729, 0.972716, -0.127634, 0.987826, -0.161616, 1.017102, -0.207396, 1.026197, -0.299728, 1.009339, -0.357809, 1.013084, -0.418610, 1.019608, -0.520112, 1.019185, -0.575322, 0.990777, -0.674030, 0.987197, -0.751065, 0.938523, -0.890154, 0.833653, -0.989212, 0.757628, -1.045374, 0.618932, -1.123438, 0.525347, -1.188426, 0.381783, -1.178751, 0.250174, -1.179725, 0.148205, -1.156802, -0.005452, -1.086015, -0.080554, -1.039702, -0.145860, -0.982012, -0.199903, -0.924305, -0.272487, -0.830114, -0.294041, -0.752621, -0.310702, -0.673226, -0.306519, -0.605923, -0.312881, -0.572786, -0.314790, -0.528441, -0.285900, -0.474898, -0.293404, -0.438372, -0.266816, -0.431040, -0.240594, -0.407152, -0.225401, -0.390546, -0.237335, -0.351266, -0.195560, -0.351365, -0.154831, -0.337315, -0.127518, -0.337330, -0.128089, -0.350757, -0.158075, -0.371511, -0.162104, -0.395729, -0.152699, -0.412943, -0.157418, -0.423586, -0.179987, -0.418203, -0.216751, -0.397339, -0.244293, -0.404667, -0.250906, -0.413867, -0.298777, -0.351568, -0.267825, -0.370800, -0.305825, -0.358225, -0.326818, -0.264663, -0.320363, -0.282944, -0.278129, -0.268312, -0.373855, -0.191654, -0.398486, -0.205248, -0.393506, -0.158187,
//    0.000000, 0.000000, 0.903196, -0.012438, 0.912105, -0.029257, 0.929942, -0.053279, 0.951549, -0.096263, 0.972531, -0.115625, 0.992029, -0.163125, 1.021327, -0.212708, 1.045698, -0.296258, 1.024563, -0.378065, 1.038592, -0.441721, 1.026684, -0.495988, 1.019742, -0.576347, 1.014671, -0.650031, 0.988629, -0.725814, 0.947960, -0.847954, 0.859455, -0.975905, 0.763794, -1.077994, 0.685195, -1.131772, 0.534795, -1.201812, 0.375233, -1.213604, 0.266416, -1.223585, 0.129790, -1.194755, 0.015684, -1.151710, -0.063474, -1.075699, -0.133975, -1.025693, -0.217953, -0.956290, -0.277980, -0.821501, -0.289736, -0.760107, -0.298154, -0.691104, -0.327535, -0.625971, -0.316207, -0.581325, -0.324466, -0.531038, -0.301321, -0.480941, -0.280212, -0.435553, -0.261397, -0.426904, -0.230182, -0.387631, -0.200615, -0.355544, -0.197785, -0.375374, -0.147162, -0.355432, -0.156235, -0.335102, -0.132790, -0.359893, -0.150293, -0.374920, -0.166208, -0.391972, -0.172526, -0.436200, -0.203469, -0.406396, -0.138922, -0.392999, -0.208498, -0.434707, -0.264253, -0.468403, -0.262798, -0.453422, -0.251371, -0.416047, -0.276966, -0.345636, -0.337156, -0.290668, -0.359833, -0.334431, -0.355657, -0.333061, -0.359303, -0.275660, -0.332358, -0.310523, -0.307633, -0.262573, -0.356246, -0.241799, -0.373373, -0.199249,
//    0.000000, 0.000000, 0.924731, -0.017194, 0.910683, -0.018492, 0.920620, -0.043187, 0.930395, -0.060115, 0.971540, -0.058201, 0.997101, -0.100855, 1.013802, -0.138658, 1.051472, -0.204023, 1.065032, -0.249903, 1.073431, -0.276611, 1.100380, -0.331426, 1.115921, -0.416265, 1.116923, -0.487770, 1.122455, -0.565466, 1.107814, -0.675161, 1.109268, -0.779161, 1.048883, -0.902963, 0.974386, -1.006409, 0.916764, -1.080162, 0.796101, -1.178682, 0.643210, -1.250782, 0.527425, -1.294788, 0.389174, -1.318781, 0.231612, -1.312200, 0.143978, -1.232528, 0.049277, -1.192074, -0.031380, -1.126452, -0.054931, -1.145065, -0.230188, -1.061075, -0.294824, -0.946525, -0.308571, -0.875256, -0.332404, -0.796563, -0.329415, -0.718255, -0.313641, -0.642148, -0.281919, -0.627378, -0.273165, -0.549369, -0.269327, -0.515893, -0.220315, -0.506175, -0.184437, -0.490119, -0.145993, -0.510705, -0.202315, -0.504454, -0.234841, -0.576886, -0.214140, -0.586981, -0.244873, -0.545909, -0.337680, -0.476955, -0.382789, -0.509886, -0.351929, -0.477917, -0.365237, -0.530210, -0.336517, -0.478226, -0.325285, -0.391805, -0.384525, -0.397177, -0.400615, -0.350259, -0.343198, -0.294315, -0.382165, -0.339682, -0.424757, -0.255713, -0.456528, -0.313835, -0.348326, -0.348577, -0.334608, -0.349521, -0.426462, -0.324003,
//    0.000000, 0.000000, 0.905444, -0.003118, 0.909759, -0.015885, 0.917524, -0.026714, 0.953770, -0.044180, 0.971269, -0.067518, 0.979023, -0.084897, 1.013540, -0.116329, 1.032118, -0.154450, 1.038239, -0.186460, 1.088613, -0.251702, 1.073207, -0.293066, 1.080116, -0.362417, 1.110028, -0.428453, 1.124991, -0.490322, 1.144917, -0.543236, 1.150775, -0.672834, 1.138846, -0.790061, 1.111079, -0.844997, 1.111493, -0.996552, 0.991920, -1.135047, 0.855874, -1.231645, 0.678321, -1.342204, 0.584011, -1.380808, 0.426452, -1.316414, 0.280467, -1.281705, 0.167163, -1.263273, 0.081324, -1.242115, -0.015100, -1.182440, -0.112970, -1.149250, -0.146141, -1.076913, -0.183588, -1.003308, -0.217909, -0.905750, -0.184537, -0.886786, -0.201306, -0.894695, -0.221754, -0.865066, -0.224963, -0.806997, -0.247618, -0.815923, -0.229767, -0.803066, -0.227886, -0.681834, -0.132767, -0.602251, -0.216291, -0.623593, -0.210175, -0.672742, -0.187552, -0.613244, -0.199702, -0.527158, -0.140148, -0.591160, -0.256070, -0.487584, -0.274317, -0.477244, -0.235460, -0.458709, -0.282485, -0.381845, -0.398760, -0.462740, -0.424372, -0.463860, -0.347120, -0.445304, -0.418675, -0.381062, -0.423894, -0.424960, -0.496204, -0.346895, -0.471214, -0.333365, -0.527060, -0.318417, -0.478195, -0.302664, -0.473266, -0.297699,
//    0.000000, 0.000000, 0.914998, 0.011457, 0.920155, -0.011929, 0.926705, -0.023100, 0.947810, -0.042937, 0.966809, -0.073449, 0.987016, -0.092368, 0.992451, -0.124221, 1.021450, -0.169595, 1.043297, -0.196485, 1.083262, -0.243817, 1.085295, -0.285378, 1.091634, -0.354970, 1.107306, -0.411977, 1.165595, -0.483810, 1.171671, -0.546524, 1.204622, -0.647069, 1.197141, -0.781655, 1.164330, -0.849448, 1.078666, -0.993210, 0.956318, -1.206450, 0.844298, -1.305561, 0.703307, -1.332660, 0.576712, -1.424860, 0.397836, -1.368796, 0.269448, -1.353785, 0.167379, -1.310275, 0.094606, -1.265796, 0.025003, -1.232987, -0.138245, -1.178188, -0.222110, -1.085794, -0.220739, -0.999562, -0.201519, -0.974685, -0.176388, -0.916715, -0.176142, -0.931743, -0.200922, -0.848718, -0.186123, -0.919538, -0.217380, -0.899073, -0.255255, -0.807931, -0.283754, -0.796439, -0.273240, -0.817324, -0.278563, -0.768517, -0.339639, -0.654935, -0.352684, -0.699625, -0.324531, -0.723132, -0.333276, -0.680744, -0.500703, -0.621529, -0.499150, -0.614316, -0.381678, -0.541652, -0.408837, -0.472831, -0.396230, -0.500702, -0.426736, -0.473923, -0.444739, -0.426283, -0.466575, -0.359117, -0.480989, -0.329112, -0.443728, -0.344419, -0.447137, -0.312015, -0.422640, -0.314033, -0.499043, -0.333123, -0.467545, -0.264208,
//    0.000000, 0.000000, 0.880632, -0.002292, 0.909945, -0.006923, 0.925447, -0.017024, 0.945199, -0.022713, 0.961031, -0.046014, 0.977779, -0.061046, 0.991771, -0.107247, 1.010145, -0.128872, 1.024055, -0.136049, 1.038799, -0.163245, 1.078591, -0.208341, 1.118516, -0.241082, 1.136555, -0.285572, 1.178222, -0.308259, 1.197605, -0.411522, 1.232652, -0.498511, 1.277101, -0.556360, 1.303502, -0.628615, 1.304297, -0.787548, 1.269024, -0.909488, 1.273569, -1.056694, 1.226432, -1.237885, 1.091052, -1.379215, 0.944575, -1.459828, 0.802151, -1.525466, 0.714584, -1.562978, 0.490913, -1.603159, 0.369176, -1.623092, 0.244920, -1.564989, 0.002792, -1.480963, -0.071587, -1.467758, -0.151889, -1.344044, -0.141788, -1.239764, -0.152284, -1.243033, -0.163955, -1.197403, -0.162518, -1.191047, -0.259357, -1.179607, -0.300701, -1.196053, -0.423211, -1.110084, -0.510857, -0.931451, -0.293539, -0.971705, -0.334811, -0.897573, -0.445468, -0.813086, -0.516925, -0.730741, -0.482483, -0.698274, -0.543137, -0.639369, -0.587460, -0.676811, -0.682111, -0.743596, -0.695856, -0.577419, -0.562493, -0.610698, -0.592115, -0.514711, -0.527977, -0.440044, -0.645021, -0.423401, -0.629534, -0.393376, -0.657924, -0.353914, -0.788546, -0.319602, -0.726636, -0.272826, -0.630743, -0.217960, -0.562856, -0.180331,
//    0.000000, 0.000000, 0.943074, -0.026408, 0.930682, -0.012167, 0.924222, -0.003503, 0.930101, -0.023382, 0.954561, -0.052099, 0.992983, -0.070207, 1.000273, -0.088094, 1.009862, -0.121677, 1.033682, -0.136739, 1.075667, -0.168282, 1.095842, -0.206655, 1.119517, -0.268397, 1.129851, -0.291638, 1.176333, -0.310296, 1.204360, -0.367028, 1.266222, -0.451986, 1.257492, -0.554191, 1.260936, -0.609332, 1.256019, -0.735176, 1.289029, -0.938554, 1.277110, -1.025296, 1.169872, -1.225336, 1.055896, -1.331871, 0.921140, -1.418038, 0.772670, -1.474574, 0.639092, -1.485518, 0.491548, -1.561915, 0.344478, -1.629533, 0.059269, -1.606621, -0.129295, -1.451752, -0.110441, -1.409766, -0.076280, -1.297948, -0.115605, -1.263338, -0.229918, -1.285800, -0.274158, -1.212524, -0.298498, -1.155430, -0.379621, -1.138706, -0.352080, -1.040204, -0.304593, -0.932165, -0.216096, -0.901096, -0.392140, -0.922875, -0.409535, -0.718812, -0.384368, -0.787501, -0.334452, -0.546689, -0.445102, -0.700221, -0.563839, -0.745841, -0.600102, -0.742592, -0.613054, -0.719853, -0.617191, -0.616976, -0.615394, -0.565228, -0.609632, -0.511630, -0.624761, -0.386448, -0.622360, -0.427220, -0.613489, -0.444239, -0.615581, -0.427473, -0.677455, -0.365673, -0.670022, -0.306100, -0.670287, -0.287176, -0.661543, -0.297566,
//    0.000000, 0.000000, 0.902645, -0.008738, 0.913185, -0.020617, 0.923222, -0.022041, 0.944030, -0.035473, 0.978646, -0.049802, 0.982064, -0.063705, 1.003947, -0.080727, 0.998299, -0.120971, 1.013291, -0.129072, 1.066752, -0.143306, 1.098716, -0.186783, 1.104330, -0.246084, 1.129728, -0.285998, 1.203921, -0.328916, 1.187857, -0.380147, 1.251041, -0.428996, 1.273893, -0.569358, 1.291776, -0.668091, 1.318968, -0.750707, 1.290140, -0.908594, 1.269690, -1.053175, 1.212842, -1.214610, 1.085679, -1.304331, 0.924927, -1.442717, 0.793896, -1.486851, 0.665661, -1.514610, 0.479011, -1.603853, 0.413331, -1.634551, 0.247108, -1.617915, 0.057927, -1.524667, -0.066210, -1.449071, -0.069422, -1.373010, -0.122644, -1.313032, -0.209577, -1.329019, -0.305574, -1.269958, -0.327846, -1.227584, -0.379346, -1.208028, -0.278851, -1.111758, -0.268958, -1.069630, -0.281453, -0.988219, -0.264846, -0.988608, -0.344810, -0.900747, -0.479129, -0.848854, -0.420911, -0.792864, -0.546585, -0.991152, -0.579568, -0.857874, -0.649215, -0.796594, -0.610502, -0.779047, -0.682484, -0.583608, -0.684983, -0.464327, -0.741460, -0.484633, -0.776367, -0.536879, -0.773368, -0.431554, -0.661881, -0.435769, -0.637447, -0.358146, -0.702797, -0.275110, -0.658758, -0.306864, -0.660279, -0.255135, -0.624336, -0.289918,
//    0.000000, 0.000000, 0.887537, -0.010114, 0.927839, -0.009163, 0.934747, -0.011881, 0.935823, -0.012318, 0.958539, -0.040568, 0.984628, -0.065669, 0.992307, -0.096006, 1.021351, -0.109551, 1.049309, -0.114790, 1.082898, -0.155176, 1.113922, -0.205275, 1.119045, -0.250635, 1.139113, -0.288782, 1.187178, -0.320210, 1.215211, -0.369628, 1.297149, -0.448826, 1.296496, -0.567035, 1.297476, -0.632357, 1.309382, -0.768491, 1.291568, -0.956693, 1.254802, -1.038851, 1.205803, -1.221176, 1.072556, -1.371152, 0.902310, -1.412427, 0.817964, -1.521713, 0.675781, -1.598469, 0.481346, -1.627860, 0.396470, -1.684902, 0.251780, -1.630190, 0.037029, -1.504937, -0.066978, -1.436083, -0.152216, -1.346714, -0.172344, -1.280925, -0.205397, -1.243440, -0.238890, -1.234019, -0.304429, -1.169535, -0.341559, -1.159012, -0.328638, -1.028122, -0.244719, -1.063704, -0.363716, -1.081648, -0.356277, -1.002677, -0.381236, -0.833567, -0.382567, -0.910200, -0.326780, -0.842807, -0.356088, -0.702891, -0.459360, -0.818958, -0.581803, -0.847834, -0.605030, -0.692409, -0.647744, -0.633217, -0.656289, -0.609668, -0.672549, -0.606696, -0.683300, -0.546538, -0.647021, -0.456271, -0.639362, -0.410696, -0.685430, -0.412356, -0.685240, -0.375823, -0.643343, -0.276925, -0.656649, -0.288963, -0.541473, -0.302530,
//    0.000000, 0.000000, 0.912131, -0.024864, 0.916390, -0.005895, 0.916012, -0.011838, 0.928535, -0.021119, 0.951653, -0.024741, 0.975160, -0.030854, 0.984135, -0.046079, 0.997114, -0.076802, 1.011178, -0.089187, 1.053712, -0.113258, 1.084564, -0.119838, 1.111452, -0.145520, 1.140380, -0.176514, 1.161922, -0.201035, 1.202646, -0.232602, 1.271418, -0.264107, 1.324328, -0.323344, 1.317699, -0.363917, 1.405306, -0.470680, 1.433909, -0.578496, 1.460872, -0.672311, 1.511747, -0.784934, 1.517385, -0.943530, 1.466479, -1.096626, 1.434517, -1.288581, 1.378336, -1.442193, 1.288129, -1.577711, 1.227936, -1.762687, 1.049080, -1.922589, 0.782944, -2.141010, 0.606186, -2.137225, 0.334314, -2.130450, 0.293544, -2.111216, 0.191590, -2.142813, -0.014816, -2.046033, -0.170342, -1.931704, -0.355887, -1.971156, -0.426398, -1.911799, -0.566655, -1.875981, -0.661963, -1.647367, -0.790618, -1.629864, -0.856906, -1.612700, -0.927750, -1.548502, -0.995242, -1.488055, -1.050143, -1.285873, -1.099745, -1.166679, -1.036180, -1.072741, -1.118865, -0.910436, -1.167131, -0.899150, -1.145146, -0.757519, -1.067027, -0.611429, -1.027460, -0.533517, -1.102282, -0.480275, -1.061985, -0.445350, -1.024033, -0.402555, -1.048571, -0.389319, -1.024537, -0.346415, -1.055542, -0.308535, -0.980041, -0.214520,
//    0.000000, 0.000000, 0.951706, -0.027548, 0.919248, -0.005688, 0.916772, -0.011157, 0.930086, -0.006598, 0.942256, -0.014534, 0.979260, -0.034972, 1.001008, -0.059517, 0.985878, -0.073200, 1.006995, -0.091164, 1.026984, -0.112225, 1.050824, -0.123230, 1.108080, -0.165316, 1.145579, -0.188322, 1.194848, -0.202728, 1.224696, -0.246851, 1.244417, -0.276747, 1.269488, -0.322634, 1.316964, -0.385932, 1.360665, -0.430553, 1.424545, -0.549797, 1.426641, -0.659212, 1.470440, -0.787640, 1.532462, -0.945926, 1.525690, -1.091694, 1.488875, -1.277078, 1.456537, -1.408951, 1.377597, -1.621015, 1.306827, -1.772751, 1.172327, -1.976734, 0.840111, -2.118834, 0.554307, -2.162609, 0.457148, -2.174115, 0.291066, -2.102383, 0.247553, -2.094938, 0.009208, -2.104379, -0.192895, -2.074409, -0.311293, -1.968217, -0.396799, -1.905282, -0.500351, -1.931642, -0.538294, -1.684627, -0.593444, -1.685490, -0.698319, -1.736451, -0.936804, -1.544349, -1.071700, -1.444980, -1.068219, -1.341961, -1.098272, -1.096029, -1.126365, -1.056141, -1.106656, -0.933844, -1.065329, -0.818343, -1.064928, -0.627670, -1.079557, -0.648155, -1.120498, -0.635458, -1.018505, -0.465484, -0.956802, -0.412456, -0.988357, -0.388956, -1.052606, -0.400238, -1.095703, -0.370356, -0.929888, -0.309349, -0.892554, -0.251129,
//    0.000000, 0.000000, 0.890796, 0.023405, 0.921404, 0.005294, 0.925400, -0.013184, 0.929566, -0.016055, 0.947648, -0.016256, 0.972301, -0.038850, 0.983422, -0.049504, 1.002075, -0.077352, 1.000197, -0.088735, 1.028492, -0.094757, 1.028694, -0.101613, 1.106597, -0.152802, 1.144887, -0.175534, 1.162795, -0.187184, 1.221862, -0.214111, 1.241907, -0.235359, 1.269085, -0.323214, 1.269005, -0.360028, 1.315146, -0.468327, 1.437296, -0.597236, 1.465247, -0.647740, 1.524641, -0.797542, 1.552503, -0.882043, 1.538963, -1.016694, 1.462036, -1.265337, 1.440084, -1.401404, 1.398505, -1.559204, 1.313940, -1.793666, 1.182387, -1.915189, 0.815030, -2.113728, 0.657517, -2.180558, 0.468956, -2.208317, 0.306973, -2.127350, 0.267139, -2.133869, 0.133897, -2.088715, -0.114699, -1.949573, -0.300360, -1.987039, -0.442256, -2.040891, -0.553007, -1.921793, -0.619650, -1.701235, -0.635212, -1.705831, -0.862517, -1.620679, -1.050143, -1.374713, -1.016076, -1.288559, -1.039726, -1.252260, -0.891866, -1.127361, -0.960267, -1.010893, -1.107596, -0.956007, -1.108483, -0.868930, -0.973582, -0.803783, -0.887805, -0.538447, -0.968627, -0.428280, -1.093677, -0.502651, -1.091169, -0.436397, -1.169588, -0.296567, -1.182018, -0.308284, -1.121001, -0.301903, -1.026027, -0.170823, -0.954059, -0.168928,
//    0.000000, 0.000000, 0.900534, -0.007331, 0.913363, -0.007812, 0.919376, -0.017672, 0.925096, -0.011815, 0.949886, -0.019951, 0.970859, -0.045153, 0.976129, -0.062047, 0.981856, -0.073167, 1.007252, -0.091487, 1.033740, -0.113815, 1.059339, -0.130322, 1.107789, -0.145210, 1.145088, -0.167473, 1.172806, -0.219816, 1.207687, -0.236664, 1.244879, -0.281359, 1.294689, -0.361102, 1.297921, -0.401125, 1.330005, -0.462173, 1.407279, -0.635939, 1.453399, -0.697610, 1.500378, -0.839993, 1.553401, -0.946147, 1.509588, -1.097887, 1.431980, -1.328367, 1.366396, -1.450682, 1.355841, -1.612773, 1.282656, -1.767965, 1.063223, -1.975497, 0.770424, -2.070384, 0.581654, -2.123584, 0.372714, -2.162489, 0.257792, -1.978822, 0.153951, -1.975133, 0.033374, -1.966239, -0.093513, -2.046920, -0.290381, -1.944497, -0.457140, -1.825212, -0.660498, -1.769079, -0.627910, -1.580156, -0.693758, -1.603943, -0.882693, -1.536014, -0.883955, -1.523499, -0.897952, -1.438990, -0.994013, -1.224646, -1.113341, -1.144008, -1.095383, -0.931830, -1.060762, -0.774394, -1.057227, -0.732236, -1.169232, -0.716389, -1.031090, -0.609720, -1.029410, -0.536580, -1.104461, -0.466804, -1.019390, -0.398097, -0.998215, -0.349541, -1.090265, -0.244576, -0.971436, -0.360912, -0.992506, -0.330577, -0.976484, -0.270516,
//    0.000000, 0.000000, 0.906499, -0.001084, 0.917574, -0.006831, 0.928917, -0.014065, 0.933444, -0.016774, 0.943514, -0.021742, 0.982078, -0.041790, 0.989477, -0.049937, 0.997278, -0.049682, 1.018417, -0.069909, 1.051829, -0.106079, 1.100957, -0.096561, 1.112841, -0.120823, 1.131177, -0.137012, 1.164970, -0.163099, 1.190733, -0.193552, 1.238798, -0.254367, 1.298318, -0.327815, 1.327062, -0.383431, 1.410308, -0.437420, 1.433151, -0.464856, 1.453805, -0.558020, 1.543104, -0.739048, 1.628989, -0.918172, 1.581809, -1.033562, 1.529754, -1.163098, 1.477116, -1.324670, 1.417844, -1.549916, 1.397628, -1.680179, 1.217993, -1.900573, 0.986925, -1.988611, 0.710409, -2.064588, 0.539866, -2.089578, 0.443358, -2.110138, 0.277982, -2.146771, 0.176452, -2.126065, 0.081499, -2.100552, -0.149270, -2.114727, -0.338515, -2.093760, -0.524359, -1.976762, -0.631943, -1.798635, -0.744200, -1.772136, -0.882130, -1.785034, -0.998390, -1.637788, -1.090552, -1.456438, -1.081621, -1.360390, -1.127369, -1.219718, -1.189038, -1.098485, -1.261776, -0.945874, -1.296680, -0.856397, -1.175993, -0.747315, -1.199137, -0.654335, -1.173210, -0.579979, -1.129166, -0.499931, -1.046045, -0.542486, -1.052640, -0.554534, -1.160481, -0.495717, -1.163743, -0.406658, -1.081629, -0.399679, -1.030036, -0.331495,
//    0.000000, 0.000000, 0.934911, -0.016056, 0.936264, -0.000871, 0.923854, -0.003562, 0.912083, -0.002305, 0.935173, -0.009581, 0.956342, -0.020665, 0.979534, -0.033662, 0.988608, -0.039577, 1.008654, -0.039402, 1.021452, -0.032353, 1.044028, -0.049591, 1.065834, -0.059044, 1.050650, -0.076732, 1.080279, -0.090928, 1.131979, -0.106913, 1.160875, -0.131691, 1.230966, -0.181352, 1.259485, -0.168868, 1.342800, -0.202748, 1.407278, -0.249022, 1.462435, -0.279617, 1.495505, -0.318347, 1.547033, -0.413694, 1.650863, -0.552103, 1.682879, -0.605241, 1.736856, -0.672211, 1.875402, -0.810725, 1.880720, -0.999662, 1.922072, -1.212821, 1.911276, -1.482880, 1.877928, -1.716587, 1.770539, -1.934632, 1.601367, -2.090033, 1.495951, -2.249105, 1.397077, -2.540070, 1.235603, -2.707759, 0.864373, -2.936825, 0.511830, -2.984995, 0.439161, -2.957720, 0.410763, -2.739038, -0.003316, -2.555588, -0.539812, -2.611739, -0.800145, -2.355836, -0.802295, -2.018272, -0.611738, -2.000230, -0.970691, -1.980908, -1.020720, -1.883441, -1.189978, -1.734164, -1.204473, -1.391023, -1.427195, -1.053709, -1.511101, -1.014876, -1.712449, -0.992479, -1.743860, -1.049368, -1.732428, -1.120757, -1.918080, -0.971841, -1.823665, -0.806581, -1.879997, -0.649851, -1.934920, -0.685898, -1.884944, -0.512766,
//    0.000000, 0.000000, 0.883908, 0.001624, 0.923143, -0.000716, 0.927349, -0.004804, 0.926703, -0.017003, 0.930353, -0.019577, 0.955283, -0.024142, 0.954197, -0.040590, 0.960801, -0.049782, 0.977170, -0.048878, 1.004173, -0.049281, 1.019804, -0.069063, 1.049435, -0.081666, 1.073517, -0.113028, 1.098423, -0.094036, 1.128227, -0.108368, 1.181930, -0.111466, 1.197250, -0.127948, 1.223551, -0.181350, 1.276014, -0.220457, 1.318034, -0.258544, 1.387018, -0.273524, 1.488752, -0.312173, 1.553237, -0.400037, 1.611759, -0.492442, 1.665414, -0.603735, 1.637726, -0.753081, 1.775553, -0.892523, 1.874738, -1.045837, 1.960413, -1.337790, 1.900208, -1.560938, 1.852136, -1.736448, 1.698398, -2.017921, 1.560335, -2.129491, 1.522693, -2.238920, 1.263763, -2.557795, 1.137726, -2.604728, 0.933698, -2.847788, 0.602089, -2.958556, 0.467800, -3.047765, 0.186400, -3.031733, 0.068264, -3.024518, -0.295749, -2.751665, -0.897794, -2.423635, -0.956948, -2.078922, -0.620554, -1.882378, -0.772492, -2.132826, -1.045628, -2.004699, -1.303999, -1.713569, -1.523696, -1.403671, -1.489116, -0.979664, -1.542366, -1.150677, -1.299371, -1.035051, -1.648747, -0.908549, -1.777400, -0.882359, -1.895543, -0.870319, -1.936336, -0.691083, -1.791541, -0.715319, -1.793359, -0.457229, -1.615520, -0.167321,
//    0.000000, 0.000000, 0.913722, -0.008550, 0.917236, -0.008376, 0.921534, -0.011670, 0.918948, -0.012085, 0.932661, -0.015527, 0.954938, -0.016711, 0.949938, -0.029854, 0.950611, -0.034578, 0.968884, -0.042455, 0.989713, -0.057692, 1.015041, -0.064358, 1.043740, -0.064415, 1.058034, -0.079514, 1.083021, -0.079992, 1.094896, -0.115587, 1.122183, -0.117615, 1.178113, -0.109572, 1.188769, -0.137279, 1.236897, -0.125565, 1.301384, -0.140426, 1.363548, -0.161234, 1.432277, -0.239473, 1.484176, -0.286724, 1.528714, -0.332215, 1.615366, -0.438336, 1.622175, -0.485539, 1.818522, -0.573348, 1.864408, -0.676787, 1.903010, -0.825775, 1.932321, -0.981918, 2.068793, -1.191093, 2.155368, -1.323644, 2.102689, -1.552950, 2.065839, -1.793433, 1.991492, -2.034065, 1.950002, -2.091557, 1.696359, -2.431476, 1.408341, -2.814394, 1.175122, -2.829584, 0.695225, -2.815296, 0.645573, -2.745581, 0.483230, -2.759495, -0.064436, -2.770473, -0.387522, -2.218465, -0.402496, -2.200197, -0.591990, -2.728722, -0.607951, -2.426540, -0.808988, -2.291016, -0.910990, -2.371627, -1.124140, -1.815936, -1.469908, -1.567776, -1.658285, -1.570420, -1.851032, -1.616684, -1.927773, -1.693351, -2.379983, -1.626081, -2.634315, -1.464241, -2.186270, -0.890461, -2.339721, -0.514551, -2.555258, -0.574342,
//    0.000000, 0.000000, 0.933218, 0.006119, 0.916136, -0.004821, 0.916560, 0.001363, 0.926151, -0.003703, 0.928950, -0.010085, 0.952383, -0.014082, 0.967533, -0.024261, 0.953775, -0.038130, 0.967680, -0.035387, 0.986403, -0.028059, 1.015534, -0.032971, 1.059715, -0.073687, 1.071508, -0.086068, 1.075279, -0.083400, 1.095751, -0.065759, 1.167179, -0.080518, 1.205189, -0.115617, 1.169137, -0.117494, 1.205642, -0.140345, 1.307902, -0.153542, 1.369878, -0.193883, 1.475825, -0.274343, 1.516613, -0.326176, 1.534410, -0.366035, 1.593378, -0.446077, 1.637428, -0.502464, 1.769376, -0.509315, 1.871808, -0.661113, 1.938629, -0.742535, 2.051648, -0.987535, 2.106286, -1.271402, 2.096594, -1.397075, 2.035967, -1.681026, 2.057221, -1.893155, 2.026133, -2.099612, 1.920383, -2.319553, 1.869600, -2.583368, 1.725256, -2.800216, 1.389400, -3.218284, 0.915165, -3.201426, 0.628441, -3.044346, 0.408646, -3.128480, -0.107141, -3.129182, -0.118231, -2.903284, -0.503354, -2.673748, -0.640653, -2.756365, -0.939674, -2.745234, -1.160907, -2.658197, -1.409133, -2.527152, -1.755928, -2.025445, -2.288402, -2.106889, -1.762106, -2.067715, -1.951783, -1.595749, -2.091425, -1.648582, -2.628937, -1.431853, -2.873940, -1.391958, -2.484591, -0.922996, -2.418852, -0.680514, -2.404384, -0.663378,
//    0.000000, 0.000000, 0.892025, 0.003728, 0.926150, -0.011999, 0.933433, -0.013454, 0.929417, -0.027390, 0.936137, -0.009241, 0.967985, 0.001397, 0.973239, -0.026465, 0.976741, -0.037487, 0.992688, -0.035920, 1.021958, -0.036773, 1.033333, -0.053199, 1.047755, -0.072840, 1.064519, -0.085807, 1.113682, -0.073026, 1.113406, -0.090651, 1.185688, -0.148257, 1.220180, -0.181154, 1.241808, -0.182883, 1.269712, -0.220723, 1.381894, -0.277227, 1.429089, -0.289997, 1.512100, -0.336348, 1.545318, -0.462657, 1.602264, -0.515382, 1.670470, -0.583776, 1.742392, -0.747957, 1.834788, -0.794319, 1.912889, -0.908435, 1.955818, -1.193529, 1.981544, -1.400351, 1.908642, -1.747221, 1.777836, -1.923351, 1.656400, -2.040286, 1.581927, -2.185791, 1.396095, -2.362081, 1.184315, -2.444143, 0.980655, -2.735763, 0.637920, -3.023591, 0.208062, -2.976516, 0.105700, -2.649497, -0.117988, -2.863355, -0.347052, -2.710443, -0.656290, -2.206154, -0.875390, -1.960293, -0.768960, -1.877616, -1.027699, -1.608098, -1.532328, -1.806524, -1.263801, -1.794441, -1.262789, -1.667076, -1.567514, -1.586203, -1.640561, -1.180485, -1.812319, -1.222515, -1.762023, -1.182248, -1.745014, -1.140637, -1.868562, -0.931131, -1.728501, -0.728749, -1.766918, -0.549300, -1.778156, -0.413237, -1.737450, -0.474264,
//    0.000000, 0.000000, 0.911784, -0.017410, 0.925677, -0.010472, 0.926270, -0.009616, 0.935534, -0.005874, 0.933612, -0.017974, 0.969202, -0.021427, 0.969642, -0.029726, 0.951594, -0.033972, 0.973302, -0.026474, 1.007624, -0.017167, 0.994765, -0.041420, 1.006017, -0.052111, 1.043795, -0.076665, 1.084264, -0.071580, 1.086731, -0.065670, 1.133583, -0.072755, 1.150959, -0.101847, 1.165479, -0.109190, 1.242234, -0.141434, 1.289046, -0.167760, 1.353610, -0.167424, 1.444314, -0.255031, 1.481049, -0.344928, 1.494581, -0.373452, 1.555147, -0.422113, 1.626108, -0.476375, 1.779859, -0.504830, 1.848757, -0.638554, 1.949634, -0.767473, 2.006480, -0.928588, 2.083050, -1.211525, 2.062968, -1.278142, 2.061487, -1.510556, 2.154252, -1.761682, 2.058454, -1.953278, 1.964262, -2.123441, 1.909329, -2.376624, 1.581889, -2.662019, 1.573573, -2.934009, 1.188684, -2.867093, 0.727526, -2.862183, 0.265545, -2.779770, 0.585721, -2.967474, 0.209566, -2.942198, -0.596675, -2.756814, -0.632880, -2.525788, -1.140577, -2.887282, -1.192625, -2.591149, -1.195360, -2.253726, -1.735221, -1.969049, -2.234664, -1.502961, -2.202571, -1.863085, -2.122071, -1.884158, -2.609011, -1.765381, -2.454786, -1.354786, -2.831652, -1.204031, -2.780714, -1.346965, -2.585630, -0.986228, -2.396343, -0.799504,
//    0.000000, 0.000000, 0.905557, 0.020105, 0.932582, 0.010815, 0.936031, 0.000110, 0.929052, 0.007539, 0.934822, 0.000994, 0.951980, -0.013886, 0.962856, -0.027524, 0.960773, -0.035046, 0.970979, -0.027576, 0.986281, -0.038197, 1.013375, -0.050151, 1.062241, -0.068173, 1.071120, -0.075287, 1.079925, -0.071792, 1.117609, -0.059540, 1.164016, -0.070076, 1.196524, -0.123210, 1.196791, -0.142134, 1.234152, -0.191493, 1.321350, -0.195848, 1.352042, -0.207134, 1.450400, -0.239839, 1.516137, -0.302046, 1.584403, -0.375110, 1.619683, -0.441494, 1.639988, -0.510729, 1.813365, -0.511851, 1.909781, -0.621628, 1.935059, -0.792258, 2.036745, -1.162845, 2.129858, -1.271785, 2.099919, -1.459201, 2.107160, -1.583179, 2.079689, -1.834653, 2.099382, -2.168081, 1.988292, -2.400712, 1.901006, -2.748077, 1.678462, -2.956084, 1.204896, -3.124476, 0.885847, -3.197400, 0.793769, -3.215867, 0.340565, -3.331800, -0.381238, -3.139755, -0.295474, -2.911072, -0.414136, -2.947685, -0.899663, -2.888466, -1.035878, -2.881526, -0.916597, -2.511969, -1.288948, -2.432602, -1.678080, -1.975906, -1.664331, -1.761969, -1.774632, -1.684783, -2.266574, -1.422727, -2.538928, -1.496789, -2.861582, -1.308534, -2.381270, -1.134750, -2.362600, -0.966235, -2.390371, -0.867020, -2.386361, -0.754344,
//    0.000000, 0.000000, 0.918736, -0.013452, 0.911145, 0.001507, 0.922612, -0.011943, 0.933770, -0.010759, 0.933458, -0.007598, 0.955529, -0.016571, 0.964713, -0.031469, 0.966536, -0.035327, 0.973254, -0.030301, 0.992924, -0.033908, 1.020182, -0.037582, 1.053679, -0.063667, 1.057237, -0.082954, 1.085581, -0.081408, 1.089349, -0.070830, 1.121477, -0.082748, 1.146318, -0.117452, 1.181617, -0.149604, 1.233259, -0.173195, 1.307117, -0.171532, 1.371498, -0.189489, 1.459346, -0.245136, 1.519324, -0.319394, 1.541262, -0.384139, 1.638040, -0.433344, 1.688720, -0.482437, 1.754052, -0.502999, 1.824484, -0.645355, 1.989941, -0.875300, 2.080412, -1.018232, 2.147705, -1.210490, 2.096114, -1.455377, 2.054661, -1.600603, 2.014475, -1.774537, 2.033814, -2.009685, 1.963135, -2.279522, 1.919277, -2.459840, 1.795608, -2.823505, 1.369856, -3.071581, 0.948370, -3.081699, 0.755238, -3.151603, 0.453875, -3.039334, -0.083337, -2.986201, -0.434961, -2.920653, -0.435045, -2.676696, -0.707043, -2.745413, -0.891045, -2.621198, -0.740621, -2.590237, -1.269161, -2.795763, -1.545010, -2.243631, -1.938193, -1.926570, -2.015034, -1.833613, -2.065384, -1.540743, -2.305173, -1.456667, -2.513899, -1.378986, -2.464617, -1.182381, -2.425560, -0.974328, -2.276834, -0.847908, -2.507688, -0.612823,
//    0.000000, 0.000000, 0.924815, -0.019992, 0.914949, -0.001899, 0.917262, 0.002336, 0.923084, -0.008259, 0.956993, -0.010279, 0.957892, -0.013657, 0.954713, -0.026877, 0.981618, -0.035746, 0.996884, -0.037375, 1.020102, -0.043053, 1.038330, -0.043783, 1.057572, -0.082444, 1.051861, -0.094208, 1.117274, -0.092502, 1.127897, -0.081546, 1.169894, -0.132003, 1.219170, -0.167737, 1.226217, -0.183788, 1.336049, -0.245900, 1.424922, -0.272006, 1.457979, -0.289048, 1.509938, -0.311656, 1.588268, -0.386080, 1.649277, -0.511971, 1.676908, -0.582863, 1.756893, -0.686251, 1.863451, -0.784089, 1.912259, -1.028121, 1.931164, -1.207316, 1.998433, -1.419864, 1.936458, -1.698402, 1.734407, -1.901976, 1.678850, -2.047836, 1.535899, -2.218367, 1.430147, -2.434460, 1.302132, -2.678515, 1.047489, -2.848237, 0.704994, -2.851031, 0.362090, -2.814272, 0.112752, -2.836900, -0.004800, -2.756310, -0.391236, -2.941453, -0.752505, -2.470358, -0.597936, -1.701480, -0.833052, -1.748748, -1.115677, -1.885625, -1.269958, -2.004274, -1.288976, -1.758002, -1.741307, -1.646661, -1.658622, -1.526989, -1.722765, -1.234647, -1.887999, -1.320380, -1.947929, -1.182771, -1.820109, -1.070322, -1.925189, -1.005620, -1.833102, -0.852035, -1.898436, -0.675966, -1.870995, -0.644806, -1.922867, -0.573850,
//    0.000000, 0.000000, 0.909094, -0.017478, 0.930156, -0.011976, 0.940210, -0.009910, 0.938795, -0.016343, 0.941302, -0.008427, 0.960065, -0.028616, 0.974201, -0.034671, 0.980783, -0.046902, 0.977577, -0.044889, 1.003069, -0.035393, 1.036900, -0.038916, 1.051242, -0.033147, 1.078466, -0.034017, 1.086556, -0.057707, 1.100532, -0.102750, 1.155154, -0.092171, 1.201046, -0.114783, 1.190567, -0.142021, 1.240646, -0.139919, 1.362921, -0.136461, 1.376612, -0.217855, 1.405816, -0.257713, 1.464849, -0.333104, 1.516705, -0.436890, 1.638240, -0.473463, 1.675854, -0.512627, 1.758266, -0.549629, 1.915185, -0.665182, 2.019618, -0.855009, 2.098184, -1.100700, 2.138719, -1.293596, 2.067970, -1.433817, 2.014846, -1.566311, 1.943249, -1.794688, 1.986317, -1.972564, 2.013844, -2.146470, 1.887531, -2.642348, 1.708092, -3.040156, 1.281145, -3.265650, 0.874631, -3.343277, 0.898990, -3.514038, 0.632932, -3.513319, 0.033673, -3.521727, -0.220609, -3.589698, -0.704386, -3.329586, -1.029639, -3.020854, -1.080881, -2.737858, -1.420000, -2.755321, -1.629199, -2.748863, -1.587319, -2.541861, -1.653377, -2.098547, -1.815068, -1.704262, -1.975119, -1.649304, -1.850908, -1.513743, -1.815064, -1.387471, -2.139839, -1.400293, -2.116903, -1.293579, -2.003916, -1.066214, -2.160377, -0.954326,
